{"trainQuantity":55000,"validationQuantity":5000,"testQuantity":10000,"state":"finished","active":true,"index":0,"progress":99.99,"correct":0,"accuracy":94.58945894589459,"epochCounter":2,"maxEpoch":15,"testErrors":[90,"05.41"],"validationErrors":[90,"04.00"],"labels":[0,"1"],"minError":5,"drawn":false,"pos":{"x":-1,"y":-1},"states":{"Epoch 0":{"state":{"iNodes":784,"hNodes":[100],"hLayersNum":1,"oNodes":10,"weights":[{"rows":100,"cols":784,"data":[[0.5856679940619687,-0.5554232934664969,-0.9820628815983246,-0.9636017957160019,-0.29981478363142444,-0.10190582955233163,-0.3964230053959741,0.7617477156539869,0.707755311196304,-0.10959916373421508,0.25814193064656643,0.9327169815761971,0.05476910529996504,-0.7883968496769611,-0.41024144150784925,-0.7743231076085451,0.27375609867385875,-0.9510688791687356,-0.7779744604188905,-0.8344224921588206,0.2365035634296644,-0.22970386144666777,0.29402072995034145,-0.8270500982578068,-0.9223674924919802,0.091092341520151,-0.5682910514898316,0.26657072280451954,-0.7725851953495275,-0.3874429793586318,0.5174703745675497,0.19976592774557744,-0.9419699539106916,-0.5809599974318049,0.9189552950257902,0.04153530886248191,0.37816459039009076,0.6300333463063768,-0.2592258465712871,0.875821217115742,0.3973927815583882,-0.11919908549489788,0.7192685413412552,-0.5775538565203846,-0.3742288930804021,0.3475438419313204,-0.7927139260138114,-0.8281834013256211,-0.15423761536193736,-0.3589185727927784,-0.0775618367445412,-0.7667907730177432,0.4686802767854712,-0.9669536484308172,0.4448369199083426,-0.38446764709133263,0.6200149752280182,-0.37417628951645177,0.6652868027150296,0.18651729179960053,-0.0352519516565446,0.33701029799244697,0.4125983899675443,-0.21328877989796458,0.47050449891718915,-0.29444560646001694,-0.5580679655984828,-0.10154217180809844,-0.9454950032286056,-0.3718922233784965,0.7596474868780854,0.22722323145839907,-0.5521742767666551,0.8625088115364614,0.0003719648785096563,-0.16518755465424872,-0.9200193417218567,0.07779071570275575,-0.38159024407562336,0.4561618724450298,0.8581281325876653,0.4853899271395079,-0.9107087224115167,-0.22940895110356907,0.18858310688629087,-0.42641210862751655,0.10819156023997101,-0.40790860275027985,0.8370851732593136,0.6146826144458988,0.16503975276772676,-0.9368367967435962,0.11909144225584156,0.7231378402371431,-0.7387457803390032,-0.3283563370934266,-0.9345206915541149,-0.6922530928789035,0.48247787548918186,0.8053368467838278,-0.4145862328456962,0.7531911857251643,0.5593043977372543,0.35124981464901617,0.014435972726403845,-0.33397977622356456,0.36690248942908865,0.8520994083134317,0.32548005814549086,0.367228008048641,0.6637106071737469,-0.9010316102422682,-0.45267337936021357,0.41228785139584767,0.28097308341048355,0.29972809563730674,0.06044789790443916,-0.7232941690634918,-0.06504830524229877,0.9007495156608847,0.7569206640969397,-0.7398953252266065,-0.7158422608640524,-0.8228180409702581,-0.9978331013291823,0.8277731233064991,0.07413020823097893,0.01715156044043442,-0.340809864346604,-0.6329838304556876,-0.1616258833949462,0.7438506538466094,0.5583308229441708,0.36060404008906843,0.1574912228289027,-0.8884186443266213,0.08350998395106202,-0.22042060342697667,0.23305692776286935,-0.5924914203407061,-0.9703006353063715,0.968730243785157,0.2638165521044331,-0.9825719468020702,0.0900880502528092,0.9590288952774828,0.7104342115917315,0.21305158557463422,0.6326262952140538,-0.3495516139540631,0.01758847635121885,0.41930485869236334,0.48195047309250216,0.9100547824084664,0.03943295655737167,-0.5631070915453107,-0.06559105024295087,0.28207450816144153,0.4951103512882542,-0.28324807273324315,0.11533654806470506,0.2086365811420139,0.07492979782518971,0.3382757981334754,0.4471017342394932,-0.06926849716846983,-0.836320796282451,-0.05758745376528651,0.9754189058428009,0.4868319816985933,-0.4090096518569004,0.7568449180007892,0.39114761195176784,-0.18780904025206868,0.4488221273506474,-0.058769182847575374,-0.3661749363082849,-0.9192203650316182,0.45134726085580557,-0.9327604069055906,0.36925973998168105,0.9745220444200455,0.30894105596239885,-0.1955394267124393,0.962998861813188,-0.45258731885293946,-0.382668324341509,-0.09471581877770019,0.5966622325754876,-0.18707146205303138,0.7705178345361383,0.8035878123661147,-0.9322485882641793,0.34038698847628557,0.30692248271508826,-0.056313055713964166,0.46924397623069103,-0.26428692665654285,-0.02651693854844872,0.6340453904042427,0.44819865784150736,0.5382142800676648,-0.8983808385933651,0.1968489049335833,-0.7387883947852705,0.11906809203396351,-0.4031460467629402,-0.9979733017828252,0.5787417469592553,-0.7475415070466638,-0.48408651877890874,0.10944943605306179,-0.12812164733279086,-0.8944032754614584,0.5773259256166583,-0.04815127907094774,-0.2543891765715487,0.5369243812443667,0.8239290419296612,-0.5065233814630281,0.9426752677231751,0.5374647965870192,0.3634196495420188,-0.6575093541785904,0.9689555495064497,0.9039574887921198,0.7146885218959702,-0.16721229036566454,-0.024334467346777355,-0.48938955438241694,0.85341023497188,-0.7643253714465179,-0.5460839816612082,-0.7295446292953169,0.27118791490136207,-0.08519681672424384,-0.20743464220723262,0.0893013970328218,-0.789246258260921,0.6089713602333422,0.9411398328653275,-0.561299554496101,0.630720487537604,0.37984119296584584,-0.18194571510930646,-0.44466717700664016,-0.9820365233152419,-0.9028931986993942,-0.37571252667125954,0.4032288808210196,0.6633434289221962,0.2518990753249155,0.595792639429715,0.4346846108581792,-0.04629361158922585,-0.18752329509662924,-0.16795904991115473,0.5410842992447551,0.34761105560131456,0.9159341511103403,0.7093242363089585,-0.7671169273050222,0.5609377751862685,-0.3790644578686695,-0.8256811587148545,-0.06839398800060414,0.18536514944097515,-0.15946441936787248,0.3679249721024689,0.03767031469603377,0.255269032151588,0.713020777998409,-0.8209564710879369,-0.8131145608613657,0.9156015062249669,-0.1039052056034897,-0.14425418041972526,-0.7703136018587997,0.13568985660840727,0.8072331582195054,0.6307592135883424,0.2743220061423137,0.4363533844541221,0.8699457602138185,-0.080596408227392,0.08291337946071997,0.4941854041946476,-0.4518998392547491,-0.587281117729497,-0.2966363742929963,0.32837701995312485,-0.6469486638949318,-0.06634610381184314,0.32333493668528535,-0.01168861659985243,0.4371093388002796,-0.46340650041056786,-0.9293953278802431,-0.9372747221102768,-0.04319806343793853,0.12844792405850747,0.5620822217041295,-0.9718832130557882,-0.0021534246400951584,-0.7048997508752297,0.047567027282428676,-0.42768865838473236,0.3718776900997598,0.29475376721367375,-0.8500588673712506,0.027774698613727722,0.5241746735021293,0.43425102356876977,0.800393090105407,-0.7353135290698365,-0.4264682414214924,0.36106880131743924,0.8988525009023083,0.18029020014578712,0.9927699192527892,0.00876502279508884,0.3223460599314343,-0.642806330845185,0.2863801824395005,-0.8864867072268716,0.763913727948506,0.1446336132637287,-0.6750418581212403,0.8825570311252424,0.09725424954218775,-0.8012034493822848,-0.13613586093043484,0.8580658026253134,0.6331888425715251,0.3880133639582348,-0.46546111534010315,0.14443767866364077,0.7766699850681669,0.6764926924281089,0.6923954943444726,-0.9668929089522866,0.9613374442292153,0.3800291455270539,-0.5269008083187221,-0.3550605058749494,0.764417344919857,0.5257540642243819,0.22934880676734926,-0.550289237039802,-0.9511675579953927,-0.8469997843463677,0.8217228955231919,-0.5189483815643978,-0.5947503286769422,0.40664022533696165,0.13627984194139464,0.29461420415561634,-0.5161852081347054,-0.7247661451646918,-0.28978668212781633,0.6256622194915975,0.5424018898351957,-0.24345800578883003,-0.6290854443193301,0.8795822402892444,-0.7970228243321735,-0.1375948762897483,-0.01488970728383765,0.6268539524020411,0.33887706261575534,0.04106879503658645,-0.09571309826910501,0.9135937377926209,-0.7650890783689217,-0.9369850640119313,0.47403464502412596,-0.10720570004141572,-0.8914164774053939,-0.8731944249056014,0.6582621127808634,0.31004976118153693,-0.5798556818995777,-0.5533327715891108,-0.8762362598644062,0.3888040009014224,0.7680337499755385,0.03636949760491981,0.19335172820814406,0.4030152894231154,0.5710704909156912,-0.25018106899544734,-0.2874188690116666,0.009195293462211929,-0.4390617190000332,-0.26725153969806725,0.3754487491612617,-0.682991852728964,-0.9438062647878087,-0.3658321371197568,0.8125441675185192,0.33661241903354044,-0.9697153643702552,0.07358276693954457,0.0033780664390894444,-0.06620993606218084,-0.24315458773324816,0.528419231928976,-0.7381245857363727,-0.0860942097219135,-0.11282299622665404,0.5518002120918204,0.5399954765504953,-0.7004069584326362,-0.8365363636832863,0.6927333173471817,-0.8444125691889071,-0.7861944986768863,-0.96659054455501,0.36375192578147875,-0.3577022720082308,0.47150446751019426,-0.03605822212843113,0.2961830302167534,-0.9444072017495795,0.35504073140751435,-0.8839545060974605,0.2556519570254405,-0.033034669731406785,0.7460956885313521,0.7060959624951859,0.1952011722687419,0.7862416343146434,-0.5405640822253341,0.08412662110096081,-0.06593605200529806,0.11422992425863776,-0.8625283852907897,0.21388000776993654,0.616182942826419,0.9399186752864972,0.5534844781435126,-0.5657556803421482,0.19354289510088885,0.6442764779768433,0.9483922999137231,0.6108335673145329,-0.30658841257755043,-0.6875187210438314,0.6002823392061307,-0.7667894612723041,0.9281396251526852,-0.9618292589216504,-0.38958596287732017,0.9923526941757084,0.2245056288583429,-0.005583122139934726,-0.925225948153322,0.5527132931650283,-0.7936653504624518,0.12335608608171067,-0.5831799261219297,0.09599426309990178,-0.5279782845567924,0.07815912998730612,0.7451510026583337,0.8321305014848686,0.778360443882621,-0.08968369962672762,0.7696130440722011,0.746030887209967,0.32484409371828704,-0.7427784513068827,-0.3322000715072142,0.16190996912949673,-0.43351479565067197,-0.8192974062222309,0.305127173206698,-0.514798467570968,-0.06329534838421025,-0.008700164927947895,0.8966857569498083,-0.362174139843789,-0.31462517074143204,0.18968809713579327,0.8311766459068488,0.9966649055707446,0.10415676707935617,0.9348107075201477,0.13971882592009122,-0.19695591675885216,-0.8173074316056432,0.7243705594336467,-0.8767485842585216,0.49844181581946145,0.5789061633017831,0.03349626736063316,-0.6734867148679915,-0.788105153076408,0.4267308924173212,0.5118028071406036,0.900208709274896,0.513044968021451,0.6388454873198366,0.29116050891034195,0.7723609484735507,0.604716204727296,0.07493216442460238,-0.2957358236552954,-0.9508640414109426,0.11658623975238469,0.2981676049475743,0.9289023449585756,0.2944858314513441,0.03908974135242338,0.48040203418589256,-0.13590860856558407,0.22450943644639243,-0.5845760906270574,0.8039530904006564,0.6567044935762019,0.1878441219308109,0.07705931375458919,0.29017709328782004,-0.6606422905882456,-0.5771634763477416,-0.6969810778823011,0.661330097141823,-0.692419857424935,0.5716775555123363,-0.5225143780070374,-0.9996806001859575,0.8010047868516004,0.4748783945973676,-0.1736491589805107,-0.670632271212517,-0.22515743767555652,0.16836235391026055,0.9056164365058705,-0.0010794270828398123,0.8051459888749048,0.609685661223782,0.9637672595709472,-0.6536553991702405,-0.860352799124831,-0.12567755125000013,-0.6687427400863817,0.7511960002403835,-0.36926927868408166,0.578042137505173,0.7322808916126207,-0.27658043659767495,-0.873600020831188,-0.23090678975268464,-0.48239545417822627,0.26355628822817523,-0.4197013806669996,0.7307622083432916,-0.005312675979914916,0.5295074650235605,-0.6627016875373357,0.511481515901401,-0.1455539284659726,0.285059721579523,0.8575551159963357,-0.17747985836471658,-0.3406336596901487,-0.11803864370077988,-0.5390726059680979,-0.8240229154502496,0.9567132096187774,0.04903662028102618,0.16427435590610262,0.05380510156106566,-0.38524891882632684,0.6466587115535751,-0.13423935566255674,-0.4609003302155057,0.3065165250088928,0.9965838478792928,0.7088830858072921,-0.05648343514483711,-0.1699643196106424,-0.5161598096268114,0.6752496534630432,0.8615654333061384,0.294516119655964,0.6189612589310873,-0.47425938780487265,0.5412040177027206,-0.831256147761521,-0.1651087936810387,-0.29167254885390803,-0.32132457644760404,0.11148534512417552,-0.4197750686399091,-0.44512232851222255,0.4521142082024845,0.6697431672474183,0.8373270269036808,0.051340930571079024,-0.6138590534408703,-0.7439057045418349,-0.10095779526462278,0.7977684070089521,-0.9462286192754747,-0.2823243132793005,0.6085934197820058,-0.13507899315645422,-0.16037691385572783,0.2598145982403419,0.47217998768040537,0.5638210970183759,0.2428723496415044,-0.013666503059886814,-0.1894299410553848,-0.364567980858568,0.335093920132548,-0.6862611765757707,-0.5447348125127631,-0.8353878484659383,-0.6040891948857525,0.1765478056957166,-0.5293567983162459,-0.35432460031272717,-0.8541849230364404,0.9738534666248431,0.3623514631922511,-0.4105548551811471,0.869006291011047,0.5273101895738679,-0.21615065594731986,0.747433869605755,-0.9157423541844285,-0.4301737824897407,0.130793384300103,0.3142874078435398,-0.36978738479228057,0.1826092171466136,0.09163404029036837,0.07746280061620103,-0.9642089389986548,0.8161445216778469,-0.031259101330439076,-0.25024462557377714,-0.8640724561194757,0.19709414126879432,0.7828284239466341,0.07807407105623088,-0.43292677166797455,0.7790765585426132,-0.7777050523376625,-0.9331437242664655,0.03668996815817804,-0.9598808175134033,-0.2559273561870381,-0.40174292864583405,-0.0539773344172636,-0.5837776770728069,0.16246298263645453,-0.34600002466146784,0.7823729096011451,-0.8154127904682493,-0.1384991724937712,-0.049269941920257354,0.23128035369789002,-0.9589840778333492,-0.45427832466935736,-0.00008198748122634214,0.23431046595735538,-0.5227557113341617,0.5915274998562896,0.8473674646957097,-0.4539192015378468,-0.7967300514829059,0.4088650024270828,0.3675711294130062,-0.8183565821120808,-0.07517812154093706,-0.8454809966239178,0.43817086885868783,-0.41255527548875315,-0.5156444920889898,0.3985208106604956,0.381320190140942,0.08568634932994867,0.7764797443490941,0.8636479175666554,0.9006837645471129,0.8687984525354169,-0.05590737786130573,0.428484051436532,-0.4296205525471617,-0.09614761452504106,-0.6007546604140668,-0.15767887280353032,0.7259622373243384,-0.3877142055029372,-0.9908589114998578,0.8919536071286598,-0.11696486588202148,0.8242313223808044,-0.6435282060737944,-0.0013323509616529616,-0.46687600548503494,-0.052879706936300286,-0.9137380032160896,-0.9826753528896215,0.8892368752781152,0.4289643340776208,0.08757864299373486,0.27124869650334427,0.08160262136994456,-0.1937046407656553,-0.9495703755110874,0.41073032200604587,-0.9741634739956075,-0.12348015332812068,-0.6365324013006319,-0.1325062356569009,0.5607170005247788,0.8208877535079016,0.39023754110814446,-0.7857428710868763,0.0976771824668694,-0.9551151735602501,0.6060533913879089,0.23604553241775839,0.18446043824503944,-0.6132851979782348,0.7599654126565412,-0.2624474569688766,-0.48653219201737175,-0.4034122357642558,-0.72669261120368,-0.7521890389978092,-0.5728067345262886,0.16816208516536313,0.3195352559991491,-0.5390662592521835,0.15603112131030095,-0.9981652350088217,-0.05234814769582008,0.8139381536812302,-0.2756514383869326,-0.7042097153169864,0.7120436547946816,-0.8154385060152474,0.4980873678426321,0.2626776728281335,0.4397022199341778,-0.9211828068619721,-0.689725035815089,-0.3126996884338007,0.35556112254351735,0.5464747837498412,0.5612367473164734,0.27084382084793024,-0.33255092395457586,-0.974494170230501,-0.3039563917509529,0.16525712258758563,0.45388267438582086,-0.9418858320834862,-0.46529632765231277,0.46030634385018465,-0.5850685716729864,-0.5179407720073157,-0.048775564241531955,-0.4347552894682134,-0.5420384603684802,0.5944079495935597,0.9852934347491622,0.04384216303771171,-0.5198791642484342,-0.3368614612634533,0.6715916834049114,-0.7306246911295393,0.7299482451416555,0.3424886622363694,-0.9248439293502582,0.6064053912705325,0.47599830813991306,-0.2436120706661129,-0.9467069626266629],[-0.926249239780004,0.4178631105433601,0.9917011994430827,-0.2914509004360004,0.10115451631129191,0.9371469362738807,0.158749768630134,0.2828931102878185,0.700927648897762,0.4960644781289989,0.5243071829256565,-0.5389182350003292,-0.49165963675302016,-0.15276805332467402,-0.8792102289758241,0.08556252930134378,-0.023129868320679536,0.3973567073181714,-0.007294713724091295,0.9256098005585196,0.4460311883459547,0.7147611607773408,-0.058192550008094424,-0.9572271462025821,-0.4287098836825609,0.23223330523382724,0.31060912697909293,-0.7117514621070915,0.1972916344216724,-0.08355891085371425,0.41631717838559545,0.3053101343599911,0.518783437578179,0.12313421868820895,-0.5294533036106821,0.6652532122604535,0.9894465188115409,0.8705244602116013,-0.1360836986982834,0.3138835951351764,0.650962946692929,0.15462092402189986,-0.49062182641857977,-0.9765873693969314,0.6635428029297092,0.029655996154357434,-0.06415121961952797,0.3937925075375821,-0.22073367718493464,-0.6284039134540185,0.6123195701745687,0.07976299407844811,-0.5749691442499991,0.8360195549906047,-0.35405913198589833,0.23367819254958366,0.3507494976821113,0.3657787206092311,0.9747709197186043,-0.6219606616098707,0.5451635348966806,-0.6562307748484193,-0.9999920217694644,-0.608731796712981,0.1779113993850625,0.3420747412942067,0.16721654067084502,-0.2891099053915702,0.5448889363724982,-0.39300160268922824,-0.3879547393530818,0.6662280076684803,-0.7046687470268527,-0.8956368809987145,0.9598554831681196,-0.5704834163286869,0.1366484986242209,-0.0211955364206573,0.05235197192654262,0.1699290588811193,0.9347837158514116,0.13389359505491094,0.042213854471444545,0.037496752228444175,-0.41031892395699554,0.08370070193256263,0.37143711575339733,-0.3606130417350477,0.14987268317168723,-0.9486119105368833,0.8439236621489385,-0.6644588890027077,-0.684316415115853,0.1411286643824743,-0.3362643131947798,-0.4168796863624351,0.4143357509180041,-0.9606033184163496,-0.4407968658038466,-0.649739088693577,0.9152183562377014,0.1582427224328562,0.28612939121023273,-0.5582827321186028,0.9872950225956103,-0.4504616061675206,0.4724828868473856,-0.2819684127749593,0.9617476747193605,0.6479581124626537,0.9385789608833832,0.5605602005152015,-0.4663113212678509,-0.23237096291139614,0.10464492044872165,0.17736796580243763,-0.6278429460313495,0.610225663934296,0.8896066445001853,-0.8451335655213426,-0.3313986240231366,-0.6670218466823301,0.26549202475774614,-0.7626901489948668,-0.5111861218620763,0.9616738433254095,0.43774419615168836,0.5907627234455008,-0.495776643595802,0.006566876636298513,-0.5621914370212551,-0.6190318330947417,-0.7068818618120634,-0.4907886209326422,0.06713967193894899,0.9151152498268516,-0.2793089391422945,0.635914412853996,0.7572411664025172,-0.15767399323434694,0.12923889483203066,0.09967082037829433,-0.49704875600998366,-0.185940540604421,0.2380265344810979,0.2194456637486497,0.2507366351456173,-0.5976965743351539,-0.007524311808200235,-0.15112214044980887,0.35272787033223985,0.09135472370100839,-0.9526004108944148,0.9815065381715611,0.3466139268234463,-0.05899016138966795,0.23991950589603772,-0.33566490918513536,-0.0166758317350586,0.7159104580302296,0.7060906009935894,-0.8041812265588639,0.5719850007439595,-0.6795490402372408,-0.2879403310911395,-0.08199439098040462,-0.48468770470691136,-0.5779772989506708,0.058297110415848286,0.22787369931214996,-0.9677613825076212,0.7115130241809648,0.3156116000341922,0.7545946282751763,-0.5593201497687919,0.15369618263603857,0.22173927351448297,0.06558519523946837,0.874305940254809,0.32493373300050576,-0.7478787973242997,0.7113998606815677,0.5254186214211278,-0.641515691339916,0.4924094852858574,-0.23381953671358668,0.4158682129638742,0.9572493104550845,-0.072254579899663,0.7401749247476728,0.14634795217054264,-0.42577155080602824,0.04524529824736412,-0.14976608982872097,-0.257993798428394,-0.13501082534748154,-0.582596532696469,-0.3550559576960257,-0.6983489571688237,-0.6049195658977273,-0.09068687381624341,0.739866353529165,0.9541120012223943,0.5259622164931399,0.01123410797783686,-0.3435298197677621,0.18078314312106292,0.5050850785099055,0.3777219976135011,-0.3465183159644276,0.5245032277093455,0.1728735264293444,0.6842272081570353,-0.23707880597943243,-0.23648643070178532,-0.3081806109960685,-0.9840381263724676,0.6524877235139048,0.5322996862139888,0.23368106108658715,0.3452614272272614,-0.048423169859920456,-0.14216557175697053,-0.09191572545708104,0.3096409292537705,0.39891301840337445,0.4766808415796693,0.24874793424785047,-0.45552742978479355,-0.7409129599388016,-0.2515463663661355,0.8432148904318111,0.13518887322023176,-0.7685758027448217,0.12377026525290558,0.7604465330472687,0.8607410232900041,-0.9990854230385584,0.11534387639154842,-0.10526932417878676,0.47726382925158317,0.7550319493897408,0.5960253972127434,-0.10204424768667186,-0.28681298270704225,-0.9217235782614841,0.16212016908453908,0.3575172731494125,-0.5928807847907787,-0.20253778449139848,-0.0988869982409517,-0.8086654686387278,0.5843277185302009,-0.9714446507430767,-0.7670225567567277,-0.4039598993700855,-0.32104981978026426,-0.17477623548407895,0.01312311292557733,0.4972981826887213,0.8258799783451143,0.8403111613504846,0.3751534691361902,0.3357321542492355,0.3615983720017373,-0.42279977624746645,-0.7837636400251182,-0.9520076542757794,0.774273232445978,-0.2532819998044127,0.8775774428716199,0.8108358378777945,0.28684136463088605,0.45853248752598463,-0.5763563781159711,-0.32382635825530737,-0.5194505178488849,-0.8429420853938665,-0.5934578936871688,-0.45246996007782436,-0.2595670193045079,0.3411665259719201,-0.3764652631127099,0.02472275937378532,0.8701459152202908,0.3146851312406038,-0.5517758001146975,0.9029721123351104,-0.3947365344467022,-0.46060099476836736,0.979871156750945,-0.3510653357922977,0.6889254232147755,-0.47926513654501246,0.5417806205528812,0.4080284769018794,0.6031228817778187,0.28029070356499997,-0.8833667085524657,0.6700124324178145,-0.4720917649515397,-0.48466203230447347,-0.7497349154086701,0.5012649851137689,-0.4547400556124286,-0.3970636068692983,0.9913796722354873,-0.591896400274297,0.7286657834823491,0.6908190009563324,0.8336086579595297,0.8058018183754472,0.1655428462153803,0.14348244575415414,-0.7334817787524086,0.11874161018631457,-0.7886916953994452,-0.5943506993481282,-0.26820391691989176,0.520667020635748,0.3818829864333364,-0.6234351768661188,-0.20871481529670333,0.09300733546780893,0.6322259636615257,-0.30456473567398357,-0.2076738307091779,0.8981206645637818,-0.22780320511120955,0.1012463054161139,-0.45632719327269267,0.017136033778724302,-0.5884854548024843,-0.13595885079617132,0.7604969301964217,-0.6495316553466246,0.20141699120632728,0.401167434374597,-0.7362605332515768,-0.48352475907531534,0.25895702502214824,-0.08890783172941852,-0.11102328659203198,-0.0732466096144957,0.08801367563369733,0.5828175934390376,0.22953191787296356,0.24413185682823046,0.2972353592476191,-0.8854456619868194,-0.31820391399150183,0.7444597906137782,-0.07876335204423568,-0.955508969681282,0.989240698016596,-0.8764637810794584,-0.31311544193722685,0.5367922411612667,0.5054275260030503,0.28657005680240566,0.41079069923394695,0.9774350990615996,-0.5426118790613796,-0.3950340432945003,-0.6802329494952886,0.07318443196538293,-0.8238923150312105,-0.39925968837592896,0.6107350008022654,0.7803645988519181,0.6668166833493407,-0.3971910946062862,0.08565371405911093,0.08285178605504884,-0.4614676146625598,0.1105095644941938,0.669374252109842,0.7452166156561737,0.8709236029943237,-0.9388168606927301,-0.05133521272602559,0.5341521101066367,0.5840600107747218,0.26027182477693644,0.20787312323291252,-0.7407331717822356,-0.025623117820637198,-0.02027125642218719,-0.7807705298349865,-0.33898956005540803,-0.3497327411710587,0.571435585147702,0.8199969301435506,0.12480000345352238,-0.7838324064939226,0.2720460953295034,-0.7393924642443699,-0.0440131341209542,-0.6067275530366814,-0.6153366760145165,-0.6514853554497237,0.92655900921053,-0.26319457336579943,0.007957507349998894,-0.6534188507793761,0.7335185466604521,-0.9997110270214005,-0.30092491264033305,-0.7785775098362409,-0.33521498843919617,0.9244248299771938,-0.6213857400569172,0.9264839734973553,-0.32274169810008124,0.6178773607933872,0.27383788482401195,-0.38266152746935944,-0.06367876395807581,0.7337337503450454,-0.5215463446801143,0.9441350036989848,0.17843944114784205,-0.2055752036941465,-0.8646826486878223,-0.07537444669577842,-0.2470360982263491,0.02200824160636028,0.26838798411615317,-0.27355677698518477,0.8611719967139277,0.68356410271736,-0.8626626877465495,-0.1177679620534906,0.6160513466184712,-0.4743116895650241,0.6593336292729335,0.6909619756612022,-0.33475125837414454,0.38369501894684377,0.5612310763316866,-0.03550193832631954,0.9132921850383198,-0.15806195498037856,0.0421487421780149,0.8806509986901707,-0.9412042342839579,-0.8047506110996971,0.016267003563647187,-0.7330550028778386,0.7402910702044543,-0.4672231585059494,-0.8803642505144469,0.7813421871411113,-0.7923311233029686,-0.17881140026241016,0.4428158601829333,-0.6059405857395739,-0.7008659050155197,0.9774362684663618,-0.6565858775536442,0.3392851851437353,-0.26895356366367484,0.8237779019594169,0.09957809184410893,0.20703550112141111,0.6329658235595341,0.5400950949770469,0.8378716878681582,-0.7396152701916803,0.2773435839237033,0.9693662567191361,-0.9788924738572466,-0.6739976204523468,-0.2880561784367013,-0.30534598780274824,0.08882506368562759,-0.658792806628687,-0.8484986138124584,-0.8199243780557823,0.7816118376289256,0.9185566420901476,-0.30670175424591295,-0.9043543856368583,-0.3373012471040133,-0.8782492903652406,0.4141835954383708,-0.5010880474009625,0.273719497842869,0.4398250340906409,0.7205008689974097,0.06803013313005701,0.8849897727700962,-0.0691627654553657,-0.09631875021429215,-0.48476992652587425,0.8446172941572425,-0.5459324263197998,0.16674957967803739,0.3313096338716448,-0.5418499237085908,0.5098956650902164,-0.317585080838102,0.9749213698269381,-0.9573138349156072,-0.21781819034119554,-0.7365077316417872,0.0755652825120523,0.6632202470648474,-0.907067384918703,0.6931325247629065,-0.12393640442706344,-0.8487293481783289,-0.5697130999562603,-0.015739373278563562,-0.5573833378290569,-0.9546928727524995,0.8837251759576563,0.6368084338771611,0.9527966571594142,-0.3680378010210761,-0.9711382679168474,-0.8133140459274508,0.9177831001458945,-0.5088354845655145,-0.0643932575828352,0.9817411538851204,-0.12278834464642596,0.4628502252899316,0.03344446745900487,-0.46515177047201295,-0.97400672920062,0.3672987624532831,-0.2593208288734197,-0.9616291203624328,-0.992857053632727,0.7268193220928587,-0.6362782437394701,-0.0014059182891148492,0.42768321002542287,-0.7542279986270441,0.48205158861736863,-0.7208825227861346,-0.40585536044961357,0.44004586795232603,0.37273696405306533,-0.7599081870697408,0.16553088199741928,0.17356850043436034,0.8250586407429887,-0.4725998163226992,-0.7476798721363465,-0.6772876076391263,0.6664216071116127,0.13700125865348456,-0.9069389723561221,0.0418727003989432,-0.5177583166198072,-0.239220109817589,0.8439679965535489,-0.6281472822548044,-0.04792719445815963,-0.6709883140603308,0.9829697159574873,0.72583517184341,0.3700873465187635,-0.5758857719914183,-0.49118573927134546,-0.9590292283415323,-0.8416169570126806,0.8604359220450466,-0.5348198565343019,0.952017281026103,0.6203715627439563,-0.6040424909759203,-0.3661252388744549,-0.32142120773673577,-0.07700991667320856,-0.2741082657084364,0.8170153267539115,0.2501812152860159,-0.3760157780254114,0.4807062731345535,0.8736252302240239,-0.06478816632197848,-0.28923102610602447,0.22196713301053417,0.25208971863229657,0.2654317690134751,0.6877788972875143,0.5016130968673629,0.2660468914620868,0.635865769819318,-0.9857314443054694,0.5646321563392318,-0.013739826523896603,0.5828617992041374,-0.4394519635105467,0.9511673950723647,-0.859435636390218,0.7563851558346197,0.23632367516936403,-0.11011999791471383,0.07326257964281924,-0.3196708840477367,0.646547010898133,-0.6328046310127065,-0.6993640454543937,0.9101252591989044,-0.21653570092851204,-0.08991475310439312,0.5231998044373223,0.28980750251000265,0.8119103362451008,0.9791157976650278,-0.38544390062568556,-0.7355502728206673,0.41692135457414525,-0.7414293514630752,-0.4504647963573678,-0.5319991144878253,0.5862663559796248,0.08369023707593826,0.10258814257167148,0.6692468928903981,-0.14769242904339164,0.26352685935658515,-0.21734815000879215,0.08015303391137163,-0.14610840084152632,-0.8333826001569358,0.7192654678392592,0.6100997306759746,-0.8972384308924024,-0.03416907947087555,-0.738055192430463,-0.7367221786627598,-0.7338009715971239,-0.5645819071606528,0.7107674932475005,-0.0526180458702028,0.3756516713936884,-0.6723774547742039,0.8112109965439038,0.8796330650320825,-0.7510027186967692,0.40773693343105477,0.7467027648591025,0.5316128280632535,-0.056207811413647724,-0.9586418235553857,-0.4435684403858231,0.9761978970869485,0.14765648578272828,-0.3089520849716265,0.18254778635855673,-0.580748399181539,-0.057977721676734095,0.20226363618714993,-0.8756723104331625,-0.4083901350818231,-0.7606533412771339,-0.10173144377684484,0.34735681735694546,-0.22739609938274463,0.240751504523655,0.671283844922733,-0.5774116900305171,0.705101736261182,0.09186473615888868,0.31575162870170215,0.46210652666732277,-0.4689223196141483,0.5813731584835264,0.5851100999256937,0.6020345766061359,0.8229145673265381,-0.7055564480499898,-0.07343165250141914,0.11105854616180544,-0.21240800022877027,-0.2214882859797005,0.037045036778419194,0.8110822187277549,-0.5299045858332192,-0.07236342642806348,-0.44318855432791104,0.15484278524095751,0.56714169296598,-0.9101635491810969,0.1379568584207147,-0.9805272439959867,-0.13312544427136852,-0.9400080889889959,-0.40101225839774335,0.14109660064219498,0.41315554234933294,-0.5664983184714707,0.9852329333412373,0.2103294230236754,-0.4001496042228345,-0.46300386443800345,0.34004925307096534,-0.1259295134045617,0.38460258232324285,0.1658220004136146,0.502335853339194,0.5752946799753269,0.6098660012326402,-0.5059017985845518,0.0852250582554499,-0.794912654827431,-0.007778392045122873,0.4434381860376073,-0.5873600635620475,0.9922552770489168,-0.093211970171585,-0.5528920216191979,-0.633508426369191,0.465386307130065,0.2466561452911955,0.49826590209251886,0.5168920871071798,-0.36814377539500054,-0.7440437181897264,0.43912469313524416,0.3711210173893693,-0.75459473775332,0.634568262987458,0.5583165836602821,-0.627942328187894,0.8384824543154685,0.4188901097355626,0.9713695764522368,0.7046756208340601,0.24638880538821528,-0.006455161658634578,-0.366454787849376,0.701813603368902,0.2508810378732116,-0.6570690259311223,0.6727649278052537,0.8035088090228446,-0.6175631797732486,-0.1180317390037291,0.931965000821591,0.04689318615732874,-0.8441834747722365,-0.5624244835926675,-0.4755183698354317,0.5441860625313799,0.07700664823410319,0.20041243676486586,-0.5319620834741126,0.8679167853456782,0.04902336092048576,0.3628898518594481,-0.9535107901734676,-0.6165699949571097,-0.9133871033788037,0.6845978945118629,0.22136392858829268,-0.31193379532319354,-0.2546745546949738,0.703428076987211,0.991777943203928,0.9180570849437673,0.2967572339208455,-0.6269947816205637,0.23130532369217427,-0.634268536747,0.6937318845592726,0.4946170767620861,-0.07313403284442233,0.161846443816682,-0.0003680503230794052,0.4552827315402803,-0.010701820252636107,0.16579641111294574,-0.20151131430866176,-0.31962097856074356,-0.5505547507554376,-0.25787612580168084,-0.6752159214662854,0.9407824198693655],[0.4321308564487363,-0.579173158350524,0.35721877090187815,-0.7159543451751909,0.6425159144721322,-0.02146244375481987,-0.020241208244237585,0.966765502851693,-0.5826837686132389,0.3616181307162134,0.4073697885284542,0.2768824820844913,0.9593570678439369,-0.7234271064436413,-0.07600899981959275,-0.7127825538823227,0.6915499304314574,-0.04547970160723591,-0.9998176092563482,-0.5176122369732437,-0.5264622920301785,-0.9263029331010038,0.3468562158265178,-0.05076028235729546,-0.08472894051299318,-0.6545561041819374,0.29626057301522524,-0.8428996501753341,0.6605803779952084,-0.25597906820463057,-0.25769054438671146,-0.9534196842627014,-0.8509038551129289,-0.9123063454966118,0.06472609728280232,0.18235686537634122,-0.8050483035433409,0.25949826976335655,-0.8326820235737624,-0.8553912035647293,-0.12702967343452554,-0.7902464524312511,-0.047648266164919795,-0.6846442640690562,-0.7676137192751709,0.2957890530598195,-0.5276917053101859,0.7452239693834968,-0.875213665240274,0.11176395275919626,0.8229791442448811,-0.2811441992578616,-0.6807141464926358,0.1908093164736735,-0.23859813309161315,-0.005409508228720883,-0.5354052389122907,-0.28334909441024725,0.5837644166890514,-0.6020176019392445,0.7747510516156806,-0.9197769581726261,0.40796731775402484,-0.002016333074711385,0.6884371020533284,-0.600305649914648,0.7373496872864584,-0.4192149944675967,-0.6569884975192402,0.5310856138388853,-0.7692681665041299,0.7123833082667679,-0.8492130249476662,-0.3572046788960124,0.38105791200444217,-0.24141117826023772,-0.5690645434190564,-0.560342447560505,0.39201973352904784,0.8238309669873787,-0.4683219928311848,0.7518973537998583,0.39518493141354893,0.7963865411881705,0.8510187679920671,-0.4437623907008166,-0.9893510520248432,-0.8366511307349802,0.9970275611245334,-0.7725383284349099,0.36184753473247144,0.407296773510442,-0.32325760114782476,-0.7007382520226535,-0.9484445861265747,-0.7377051308878289,0.5298015934039233,-0.543517712117263,0.304178001949333,0.8543096971796709,-0.44153942828189097,0.7907464980554475,0.032655649826084154,0.14150311695595041,-0.09424556452284971,0.8280991686223187,0.8553809577092053,-0.6646514234450738,-0.966505411475526,0.9455934853071182,-0.1153801859679755,-0.9806940125585206,-0.7861892404304569,-0.7203897106567669,-0.29633009714052694,0.3027897814299241,0.5145079782558741,0.42154452358520333,-0.8333128551765299,-0.5069994729702694,0.2400741562473081,0.10697243218053476,0.8587609445119588,-0.5684742738496713,0.772327202766127,0.6340769525989782,0.45455388423629195,-0.17240515448289506,0.14619183482886977,0.07003852227447016,0.9210464218005499,0.477737403536173,0.14363643592170217,0.47715444291450937,-0.4361236414883547,0.4088426760751982,-0.44257561817927926,-0.43480065249824906,-0.3454925664274846,0.3522113326123302,0.12254141001019847,0.2085785613096245,-0.5871445651800904,0.03705727077942722,-0.682464373360375,-0.5755609455797628,0.9662887810700493,-0.26097846170995864,-0.04045102314416682,-0.7842026125675698,0.4522095557061836,0.9277749323837079,0.2424381805696656,0.550337936296929,0.19539466458058974,-0.09514778414768066,-0.038147787573818315,-0.3883206522924676,0.5602233042170432,0.7446035743087613,0.6751911560036841,0.4351799238341578,0.7394186206721789,0.01689679888702411,-0.7564924704864473,-0.8902326570454642,-0.29964644087467773,-0.7599891256760043,-0.9164962631352036,0.0025221546130882455,-0.23399516839139145,-0.0998804243039586,0.921184740406978,-0.2168078645577718,0.17244162189536727,-0.8028264741392237,-0.5826450626676447,0.562345512176301,-0.7178222359761324,-0.212672874816219,-0.1046786176455563,0.762939387759598,-0.21595954400412265,0.46536184909357914,-0.41029913924276284,-0.2652817129888856,0.30445347804435574,-0.7358513465049186,0.5686289296905662,-0.18929092487123933,-0.319453072947943,0.9742703386150213,0.9134455525688838,-0.8741795214391748,0.29593470863149784,0.9369407385344486,-0.5840134578302709,-0.19356319410535505,-0.5808961250665223,0.365936470281645,0.0673204494361257,-0.9527378772088757,-0.8793820737694467,-0.3547358897654562,0.03245595113877786,-0.31831566266961775,0.9053763756174564,-0.573832174227773,-0.988953200708909,-0.20524074582319263,-0.9498448000731323,0.46875429388575873,0.2370223771897222,0.7717000111368089,-0.6544698319651683,0.35738379273514975,-0.9607576188549638,-0.7483289094588952,0.24853097855255735,0.36384400471566125,0.16909918064487783,-0.051665664748691054,0.01233714415940379,0.04436134514011347,-0.565042488959185,0.33506129924919725,-0.0410174552253173,0.7162410743799903,0.6817984256176737,-0.8993908879479018,-0.33348928850429704,-0.014505272564769855,0.4062853775351569,0.28136747896604364,-0.3229074616210881,0.895471610248731,0.10628634389184621,-0.3530435898670128,-0.9831503831782986,0.8107755639411349,0.5815301133783075,-0.594949344310957,0.9649136522660908,-0.5580792158059111,0.12307390894688974,-0.5567636491607115,-0.9496072343614159,0.7757369304054567,0.11514872774336604,-0.6957728493953941,-0.34233105167923683,0.9056323509183601,-0.7429974368451859,0.08307599225875095,0.065289211007453,-0.777161194407443,0.7515803774371095,0.11904764323108785,-0.8036216668394573,0.02148738615201551,0.9514501598949654,0.5772639904208914,-0.8072166833841883,0.4024384117524633,0.01567345514404761,0.5243672664777672,-0.013270640753565432,-0.9667659424022763,0.10731741454521382,0.5640560318072156,-0.8969107904172882,0.8757852486643323,-0.21232994351905887,0.28425338635595265,0.6922294687095814,0.6728273845940167,0.7203331162282893,-0.7707925308957182,-0.08451051327912373,-0.6667530688469165,0.8474841642886923,0.907922020066928,0.7639113016784267,-0.5622068637071673,0.11626621267435744,0.6883569313385856,-0.9920030970192233,0.8474656309765425,-0.2599744038476055,0.9314505088720397,-0.43811669861829894,0.3057451396765083,0.5046337000320866,-0.9284166393493887,-0.8366514636742974,0.3346587711561775,-0.9949871852508956,0.42677715960685547,0.9758301894215478,-0.7890401626356527,0.2909539909567116,-0.30195815747430954,-0.6300152247321651,-0.9503609578926471,-0.5726308529394408,-0.13955223503126768,-0.8159638903976087,-0.7094214811811945,-0.15819065483096129,-0.19127318644448366,0.5769936093394672,-0.5021952841434651,0.7343315915984083,0.11753959083559162,0.25232906330871496,-0.403604444900719,-0.023667652031351016,0.9155098977451992,-0.8213293133712627,-0.08526800680788793,0.23020312740273918,-0.5716073723039774,-0.020578194220812973,-0.12906040432461707,-0.4303631790994149,-0.17229058217664783,-0.7594930856212574,0.5865204384251952,-0.917466408300281,-0.4320636094533987,-0.5662327528125404,-0.8833948149348043,-0.986584456938165,-0.28424651070225915,0.16317345281251394,0.7543249861851913,-0.5433219542157575,0.17948025243933907,0.7549683593276522,-0.9119184661270929,-0.5541430554623812,0.8243351011022897,-0.5076830979796663,-0.38443324045672567,0.6097508396999203,0.7787489916955965,-0.09038570963805825,0.13369565499277059,-0.9638895363436908,-0.659422328359706,-0.023887564578222387,0.9730913758452391,-0.6432870874757222,0.4936998400851844,-0.6945506921919753,0.7170806794826627,0.9138056821858556,-0.12074878758894259,-0.46406337197486835,0.9317726417957235,-0.029472899267227515,0.45508307225868894,-0.8896842902013562,0.14722028740969617,-0.7191349866334353,-0.5767691169670515,0.6310892020017647,0.2304460781257225,0.6738406427937509,-0.7433140456066425,0.5724359603179416,0.22510698793594686,-0.20191393943875102,0.8593148173086187,0.9533287970992892,0.3280936345587493,-0.07488640337921226,-0.5186777204316717,0.24412898483902157,-0.18315926699684537,0.7086506868067153,0.5530595172621731,0.16779801233779845,-0.8716996534206432,0.21049140449925297,-0.5970095439023058,-0.3887134613370231,0.17174060297220684,0.18368528415658547,-0.06571324520802313,0.9090922393162024,0.3207848741664179,0.8578504599425685,-0.7894229556229155,-0.40550343970441527,0.11247855457866929,-0.8440114164993537,-0.4670325493702481,0.440554156357406,0.9199915169307182,-0.8854220129437886,0.3980317352562335,0.47857756779958405,0.9126276376770048,-0.1927105202402799,0.3881267691286354,0.38036460243904635,0.6836991334312152,0.8948005203529168,-0.7765414433673921,0.6434621670460448,-0.833111863821852,-0.3367989181940034,0.6628560814291582,-0.08461473587284352,0.32006283140341174,-0.45510178222546216,-0.3896531803149612,0.3762053813957116,0.05285078963862411,-0.7911523679781012,0.9773255295643319,-0.2984219197467093,-0.6799090101896443,0.1336761288549564,-0.5035488218445114,0.7443867540899118,0.4395650720506872,0.8728932551312034,0.09205949389023083,-0.30865228833983127,-0.4067337974662706,-0.92591607816087,0.8550543515438036,-0.22628040963171236,0.19051420749080217,-0.567502640523708,-0.7552996692866223,-0.509044209714989,0.07046271245856617,-0.7707619140886197,0.0961027488945061,-0.7050458351601034,-0.520945504262794,0.5717185530700413,0.7203143047325076,-0.16902682494528043,-0.053461735420953005,0.8374265511625236,0.44695082490800253,-0.3479870994017378,0.10734228205764373,0.8136942036035866,0.33848090034904543,-0.7477424232977445,0.3185968433361548,0.4946809359198121,-0.8477555335662779,-0.9081658280331482,0.07762227378727826,-0.74868520555276,0.8704439709481917,-0.6583282362756215,0.2001839350011787,0.3552602792779662,-0.3990614961952692,-0.6651754456399017,-0.80989360894214,0.8147235279774745,0.6441493261602196,-0.9795439539573836,-0.829108996172077,-0.9299131137245868,-0.8855246792363296,-0.35724818582946827,0.12418940923872901,0.4462515150633637,0.16563922907800155,-0.36524453227628406,0.9095488466525552,-0.43450096624520285,0.31025674790922286,-0.10045012427177102,0.3514447745834848,-0.39553043021071543,-0.9296173326995005,0.1858670257260815,-0.9899608903314714,0.19885581869887803,-0.21728004137068524,0.12712598772375538,0.41495629684484037,-0.1260338251745312,0.7457106977797707,-0.2636804592540778,-0.8139185646337457,0.4855308175220199,0.08882175948952242,0.3149063135325627,0.175584380509183,-0.7522968149538416,-0.5061280698389055,0.2923422604432955,-0.17720075409446912,0.16428829503849052,-0.8107486088768336,0.1928083362178754,0.28592859737111165,-0.9968693459346647,0.800223103213968,-0.62714827033103,0.9154547309185583,-0.4813296068154549,0.4892011565491392,0.3833662596655809,-0.5745035900494699,0.812741955275553,-0.0788035971712433,0.4717348826646648,-0.9717947558981934,0.5492754802163093,0.7875998319032809,-0.969931554484512,0.9988518954211225,0.5767904835602597,-0.43682692143352764,0.21004539920254284,-0.5468285554975929,0.731601042117803,0.1687549930242156,-0.28408881021322707,-0.8521801945302994,0.870369674919786,0.14350818902283202,0.010597120282828332,0.9398344176341378,0.9661755843026563,0.5541959073649612,-0.671021715419476,0.9812524744418576,0.7941953050502377,0.4548296598574608,-0.26627498021276486,0.04984035633746542,0.8625054545600064,0.33049723817887733,0.10700884213739315,0.49701218645734646,0.128691163657487,0.22801584838884303,-0.6647269398692499,0.6722849198706402,0.5958826306334817,-0.28320027203618037,-0.17548126928143382,-0.9755681175872788,-0.2410172511855564,0.23877219218581391,0.1881654065732239,-0.8998409185131047,-0.257709786433054,-0.13993529438043484,0.7378186366988235,-0.28395251330318594,0.17335538613864365,0.8854974637739927,-0.4066887923398892,0.5511055537777623,0.9106000488954937,0.8944840753224428,-0.2008457805258661,-0.35071986913572073,-0.6798484093324222,-0.8475497680779553,0.8938541665471909,-0.15286850109868277,0.14009911765921323,-0.7938325292436992,0.554379065953591,0.3670006351809958,0.8828028738789333,0.9825111374796454,-0.1736068976812153,0.6160184722774347,0.012329459433346068,0.9100340487016747,0.9124428102327415,-0.08406964857055854,0.6945131408136536,-0.5168040870699389,0.2830452443880458,-0.08839190182340939,0.9777886414987651,-0.9771068136712568,-0.5971783045600931,-0.6612444038761329,0.34590567997899835,-0.1487754583620995,-0.9233652334295035,-0.8019174563485914,0.12761258524361518,-0.8716348554883955,0.2869402523635616,-0.9660753008832283,0.4558358924544412,-0.603296660964977,0.553930690362884,0.48245824050519936,0.362899454352676,-0.0406021217003989,-0.5539106648047551,0.7773782056663545,-0.21271117103755,-0.971731622936409,0.9668207500556028,0.7683863303165082,-0.9723938834664949,-0.44447915702547847,0.6618029944007224,0.5874212733270174,0.33271139192044985,-0.49285197637244593,-0.262629175097675,-0.7479826439517476,0.20534473041368617,-0.21746397189859423,-0.8416867833118136,0.376198455002134,-0.29248704363895217,0.9499790986615273,-0.7266571768620156,0.5976501850022669,0.5330915768681794,0.8004534845371434,-0.482908433420014,0.22675375272019682,0.3068997830545266,-0.8812721183885406,-0.16558351223665801,-0.12676610845668468,0.2096674456399319,0.13168538278311037,0.9490368143059451,0.8843756890905126,0.8596054215550968,0.06127905557200086,-0.6900569106268204,0.3925474050129889,-0.8676924598760074,-0.4713367166747293,-0.7776889378368652,0.12929833471433727,-0.6925774695906659,-0.8604262282668198,-0.056175637581775684,-0.12596079587764986,0.07940156848187607,0.45255987474440684,-0.2577065957486375,-0.603664739204927,0.5173045442821824,-0.9921655623168864,0.4415408026773988,0.5284179768901023,0.31253430007663585,-0.6252504524366818,0.8275406925693238,-0.4852606801730459,0.2047298378510123,0.08445083806448594,0.7094748627669656,0.5923719104040113,-0.6017591602000312,-0.9243228575839681,-0.9515185462510876,-0.883918104552873,-0.7778429128149857,0.6636408416637591,-0.6983852807161441,0.24650446197112097,-0.6859448514125002,0.8947659582592931,-0.9657325815726041,0.26655433984167387,0.22174330728073222,-0.9100655684299708,0.03439998830748858,-0.8266655632297488,0.25581312286990054,-0.09182300229043538,0.7931785142791894,-0.9470334806650946,-0.3773842318695597,0.9696635459657725,0.8136585527543825,-0.5253805920341583,0.3231223080096042,0.30413668100706404,-0.3834062864844747,-0.3488563777273519,0.23708410222082366,-0.540184030328899,0.8366010360590492,0.5721124469217631,-0.3050549608389017,-0.8346264941763557,0.9517086199251883,-0.6836094623769247,-0.1838530280393209,-0.8112313763616357,-0.7740695142161829,-0.970478168298883,0.5757269276500143,-0.6345847243623588,-0.7004137500236636,0.4101425753451118,-0.5147128639727603,-0.2344557038340982,0.6963467109871906,0.9151203894302806,-0.3748775034418319,0.4887228618535775,0.40377629652673974,0.44044325994483247,0.11018847560045497,0.3693354423938875,-0.9032516193560589,0.9713433887701315,0.5885175988984117,-0.4625469031515692,-0.5054927657566313,0.6259038061270237,-0.46382877968104563,0.19999391544131773,-0.9024239628168325,-0.6838417937323145,0.3344015024916269,-0.7584298720137994,-0.7357991049822545,0.392778946656674,-0.13405991409863272,0.08668584920729971,-0.48129607223737647,0.01707869502547088,-0.6100439508823896,0.8236384330952502,0.2327608659673437,-0.06488337845338532,-0.889729723105354,0.8931534970150417,0.4034026270352331,0.6737342462053819,0.7572308807665988,0.564863015596033,-0.5466006422704182,0.41737593488279856,-0.5926754407725827,0.5907850898345628,0.36412375688163623,0.9307695202011215,0.0461844039379351,-0.4864956354224137,0.6434481146343163,0.08422503788977176,0.44705867534975874,0.17560412950474813,0.7768681919278435,-0.17766577339404077,-0.712658296665692,-0.0542973347684923,0.7444722635811503,0.3718473112724263,0.6727701924135272,-0.2675028971376634,0.48193417168866626,0.8162690832669126,-0.007311099949504518,0.8508605735785042,-0.10013238951194392,0.216606492587341,-0.30010719904000616,-0.44310629898281273,-0.6313858880796737,-0.15201390814633942],[0.9153829897323262,-0.988570894316722,0.020240617243463266,-0.2695291607635957,-0.8166963505319378,0.9250079312218957,0.16447000652403254,-0.8367333420598078,0.416221351510879,0.26542017224028536,0.574065552044499,-0.45744821240308076,-0.9177465873618929,-0.04422284727161152,0.14094725597134783,-0.9437676271600699,0.6390371487803925,-0.010557469910791095,0.26785046249503575,-0.2452180364337515,0.9742119249676804,0.25983809732591645,0.3305919051265822,-0.9932229377020867,-0.1896867999716172,-0.14660046989044706,0.8133319718598417,0.3515768634513545,-0.1233567844836041,-0.9777819496704268,-0.06223817717316882,-0.5939922444517631,0.17004114487360278,-0.3406509955522645,0.03762483089696622,-0.8889273747055464,0.03355843216719068,-0.7179600109621951,-0.22507039258918926,0.14509543087700805,0.9351171826415392,-0.7805154513050228,0.37312692899646205,-0.6745979844257239,-0.48375891714335184,-0.7831755187005052,0.30329722456567243,-0.012957361302075032,-0.843919613589476,0.07840138252099593,0.5987278467070696,0.10979383687662203,-0.18453935631084795,0.10314826446911174,-0.417252076791371,-0.6184271871477196,0.6496642361790927,-0.49998347251366604,-0.7166269405987276,-0.31798251490657736,0.8890684744685804,-0.3289191463522616,0.2028125724018932,-0.312916373206342,-0.412668614997717,-0.29564407478524446,0.8480979182895452,0.3808022126501769,-0.5092075213705967,0.6215264470641995,-0.55931078664222,-0.5087206584869286,-0.005443470435980258,-0.31033630219123176,-0.42065865336465014,-0.4107143540933287,0.7154716666658638,-0.09848003046545739,-0.3365110873123607,0.3758766527470174,-0.9470274553507543,0.14599232785247218,0.36270866350994635,0.553862828825326,0.48819080617043986,-0.21247618791362433,-0.41893848234669107,-0.7383321971466212,-0.0754579186744897,-0.9578973369242751,-0.7926998333050015,0.9039914713982218,0.5543242161174984,-0.5147762411982633,-0.6459568376237812,0.9236587103123817,-0.11871919891163851,0.8600370517788469,-0.6912303139450828,0.1301002520292318,0.7274425496587449,-0.39369178846853226,0.250497072650548,-0.24690826678005706,0.24327650858295358,0.6370101850637546,-0.43604152127225926,0.672586301256834,-0.5559927515972107,-0.15283317910033167,0.6631537274089909,-0.7999539637008566,0.22501458016378506,-0.17940985412197508,-0.36817998938869456,-0.25525398506085906,-0.29430694252808043,-0.4249920208243678,-0.7236708229222528,-0.7924647767634765,0.09210081907827283,0.2947122755902598,0.9934441341870126,-0.049980318028656434,0.601000150568056,0.4156371449802436,-0.022153257560835637,-0.5367787956948582,-0.494382189206676,0.9128309894423385,0.03610677147638719,0.71226590370906,0.6309055356463564,0.4371754217432513,0.9660876070651092,0.27418666483358445,-0.9421496868658437,-0.8167453924064498,-0.5154683865676761,0.2047987101435076,-0.5218355776962225,0.16894757501171642,-0.5931029122373503,-0.7878419414900899,0.992644709277333,-0.03607139923268443,0.5935378304139249,0.7053480597088546,-0.9576800222976078,0.9634197643379625,-0.8423298023300456,-0.036169212006988305,0.3346403187207001,0.0968066976243811,0.25782081652714517,0.7261837422716537,-0.7740967411292599,0.27685748543621247,0.14689286566361193,-0.06184870181198421,-0.5037251588053504,0.06572227587723378,0.7293623313973943,-0.9147446061827749,0.5573844599879574,0.5427738892041476,-0.7685705773714815,0.33942728722837323,-0.24359415025199382,0.9638253667225969,0.1287372757840093,0.7267562909544563,0.14578197157515738,-0.9301501468959794,-0.020696554703687697,0.8750912744742618,-0.8376694408795318,0.8052583908617008,-0.8760731793242107,0.3427816362859435,0.4927401091845749,0.3594483175914376,0.5043001979072157,0.10836217664559156,-0.2535802061410932,0.325237542517967,0.6367674248720927,-0.44061787272975694,-0.5424434904370818,-0.454501925057476,-0.7409643920168203,0.15863113594694478,-0.40828469372106757,-0.9866455771495981,0.6563013672346323,-0.3387495020205751,0.9070727042781506,0.8352615271656143,-0.21036553189633778,-0.53926499930533,0.666401269584092,0.02981933801398373,-0.6115504593331671,0.5907173742923075,-0.8407437519795511,0.06696553057447274,-0.3510028402099219,0.19363780754192872,0.756159985738313,-0.6194851544047009,-0.10251507866600118,-0.6103483943854615,-0.7017934469402392,-0.7811561672547589,0.5363293755292249,-0.5695964510102345,0.015168278074167096,0.876975929678633,-0.8947746557175411,-0.3541722524407842,-0.2751376102633307,0.7392194973950363,0.5806156913754756,0.1300984952673454,-0.8819940351799229,0.9796847783011873,-0.3733162419314875,-0.6783632636126071,0.09531367746671293,-0.7377472457831193,-0.39566114251410367,0.6457131410042556,0.016170803145489243,-0.06237025344409575,0.41056415868094476,-0.1248703545587031,0.3806102749754412,-0.2881749244290792,0.733143670331031,-0.46650998130436205,0.9452716751993648,-0.10183489245969657,0.4043388335369993,0.5104315493549003,-0.7914724058222931,-0.6550115812016724,0.5914611903556581,0.8374025646169811,-0.6731988047308124,-0.35748685419277404,-0.059676128761199765,0.3948371857820705,0.06111812427683527,0.052411186126543496,0.9583915379394214,-0.6961070989503839,0.02657852456161347,-0.6824674623294058,0.6197547571300741,0.33121613870787714,0.3505485694748318,-0.4946349266074783,0.6248009147168172,-0.3885218911816548,0.045489146980121076,-0.813454373982569,0.5254884975170364,0.5043652715053641,-0.07089242741601098,0.9983933834264553,0.8575888306854282,0.08938977836605022,0.8151900524426869,-0.46376187190348683,0.4573512551382959,0.4586017526943955,0.511387871136038,-0.5877980900434296,-0.49475688358659853,0.8780176996017679,0.19753227819727281,-0.3360688321060432,-0.6660060067303362,-0.753312263517862,-0.26373720586637805,0.23467995595897806,-0.5118432429826778,0.022650732271009,-0.28943255806887747,0.5345687057324522,-0.46344119458307254,0.3132350750749038,-0.8124672984324883,-0.8717258724030332,0.6237324660194712,0.37204849167257525,-0.9259019384369807,0.645173885253647,-0.7305195218997307,0.3080912133852014,-0.0628790859840207,0.5515215772177335,-0.3871799292547826,0.47369979941127305,-0.47574184352891624,0.20596543146266622,-0.7251813310807087,-0.7064072475277807,-0.8928573826576187,0.33427706162648474,0.6243933985797485,-0.9552143853127135,0.3722384851905989,-0.8933556706342611,0.9768512089805286,-0.65149748508966,0.7138380919324168,-0.6732407397959852,-0.5806639906766686,-0.13388728022587615,0.29566783035743227,-0.7619927389216865,-0.5492446228667576,0.5944040962339463,-0.19348829750625351,-0.7559759646325157,0.8941335548881142,0.6083244421116307,0.58800878414678,0.2724826950688388,-0.013747308882845255,-0.7858621682235414,-0.542427337155506,-0.42334230848954646,0.578062154980967,0.8452495117134093,-0.9433003608559567,0.5321408605802433,-0.45897939646977615,-0.16958419952670245,-0.782021659156146,0.26957194879587343,-0.30821659110040045,-0.4868542812270469,0.658337993716513,0.3703357486532177,-0.13358521370302823,-0.11415249064152255,-0.9740199192790635,0.6580203140379144,0.45866297926570865,-0.7278130594449403,-0.13299468389462077,-0.744075898228163,-0.8655760532791104,-0.15142989847192467,-0.4066055621174991,0.7859686118753988,0.2664487498517205,0.8981827080780562,-0.16033552487099012,0.3317537774421879,-0.6121356770520714,0.9570154222294405,0.8521770701320812,0.15327962278167484,-0.8455595847403161,-0.43680806545131445,-0.46038361864576327,-0.1480404439833498,-0.48703704265959535,-0.08526520354056921,0.5870311336668286,-0.990503930302594,-0.6745286974424596,-0.2358457161620422,0.6076255705484486,0.039924005344188496,-0.3444332570650155,-0.2745602726953509,0.6195126771627737,-0.6106845728867736,0.7549142493052179,0.8724351382379181,-0.5879592517828416,-0.11098532133943118,-0.6904120341296569,-0.22106055383411305,-0.5918376496680446,0.2821014214881419,-0.5327821615474346,0.9513052012026264,-0.9207101953005463,0.6002793613323154,-0.3880105760812109,-0.2186873749197189,-0.21964272546019759,-0.4157617347801825,0.2160060399671042,-0.21454065152631308,0.5778169856410174,0.3086072545671903,-0.8153923048994913,0.7394422824394158,0.14109841661840283,0.972808249248658,0.63219317285284,-0.3945488687332397,0.695513829353676,-0.7148800710357406,0.43404187153375684,-0.2717943473975575,-0.33152138283897825,-0.8191293554100074,-0.3981560157146071,0.492423117071878,-0.36787041979471136,0.6525962153613918,-0.5765779104383779,-0.3308521958833295,-0.8068308557564727,-0.8764145627602737,-0.788915902258754,0.8720811271297562,0.39744434384000926,-0.7469277220738566,-0.977028119170541,0.565138908048455,0.4659352128609242,0.14756681160175122,0.6075101031207553,-0.4068166069073895,0.128436757561037,0.5813082180485512,0.742421148417469,0.9073641525499365,-0.8468313183990044,0.4528282112671853,0.26198715987327703,0.9830291607200901,0.18806103884238046,-0.5754265489796171,0.817376804289087,0.6438435094696324,0.45050485555974173,-0.36703135525216957,0.8083153353711452,-0.9018219557140787,0.8058391843848567,0.060692407153613015,-0.8997689582901076,0.991357635548826,-0.01721928610962209,-0.5574008511237343,0.30577148476852223,-0.885346736132455,-0.0837647840205682,0.11212958229133663,-0.638534333207244,0.8817394666901963,0.7907697750619573,0.6367226269875941,0.09806288267574237,-0.04023850473352342,-0.2085578311136589,0.2409528285460576,-0.6298054735768324,0.8198468438231528,-0.8145512585099919,-0.9114710682234706,-0.3059249112874154,-0.9038896918427479,0.504457538512461,-0.2737208439674135,-0.26554133797522894,-0.10289465924546715,-0.4154798503618784,-0.5081247646467868,-0.5009632203192749,-0.5243282091989516,0.9087969670046561,-0.2647502383233389,0.32142054685880095,-0.3847899811502724,-0.6894983580386929,-0.6334292470678162,0.7429763421000242,-0.9670973168850461,0.08451594401805318,0.4622153467102308,0.5125890578530063,0.7112800237428731,-0.369689142217136,-0.8498070623368488,0.06567974272493671,0.6251005214772449,-0.7935261531151272,0.7442011759221183,0.4506029420084021,0.9217583418998905,0.2884701680529873,0.523001558112373,0.16105830684043476,-0.4249746600485813,-0.5070047368908754,0.7360698093868177,0.23737020549162646,-0.08739061827026018,0.2031035397696188,0.8919397267742468,-0.3091145502387933,-0.45777931145913,-0.4358761058325433,-0.8978948210281896,0.8684853415000355,0.21817027152102875,0.4269109996818812,0.08459114344726126,-0.22398626055515436,0.2634138785748632,0.4311991193090108,0.5139911441171088,0.7095067959158443,-0.5854267403515252,0.11331323038378427,-0.7317127160842001,0.41383813234112043,-0.9845878644490103,-0.28397965066866604,-0.6703198518560356,0.6434351529883948,-0.15802523257495538,-0.5316143565348814,-0.6213098949208249,-0.8954324862810501,-0.3903656591714417,-0.6238296763787814,0.2767008733036844,-0.9899757904344442,0.5730511575547064,-0.2574846593820399,-0.3203726450584681,-0.4390148192653214,0.496187891126771,0.24049070159728436,0.4889020709813978,0.9907206979729135,-0.16460762474101154,0.4061157244100624,0.7411880808402773,-0.7444495432585438,-0.26304655417343215,0.8788858569419524,0.8387190846132451,-0.11519213928512406,-0.3274909776794157,-0.9314844909279456,-0.03169266150727057,0.16001854878520172,0.23558617536620852,0.2157291292563217,-0.5849023607938331,-0.7323929328244252,-0.5157778049768762,0.43117099936021064,-0.14275219237938286,-0.06625626807662521,0.8805653257826835,-0.22589565460525463,-0.9954553725072415,0.3131607564312362,-0.529153383648741,-0.7826456373008723,0.4255108815343289,-0.4491405692377488,0.13158086253286494,-0.24685326303992583,0.8658561869582269,-0.6179143340217181,-0.8659843175475053,-0.3564744650758087,0.49492395894758756,0.5400623881025819,0.00767785267145249,0.8402135750038491,0.31757655119773265,0.7829079772690959,0.7117050991115879,-0.7014306200812794,0.946185970203292,0.17457754940327752,-0.5720155047567668,0.8906706002323022,-0.20194426488609585,0.8110853557433204,0.8128343524140331,-0.08955807116274594,-0.6565306158222637,0.9181889813514905,0.6049037679898863,0.1252398717823464,-0.3175159133028993,0.989198890027267,0.8176675223856411,-0.5699943734013211,-0.5850716940740031,-0.41967406418536735,0.3213957963019465,0.5437441525863127,0.8302623752278382,0.9719296634891519,-0.5366110435974019,0.5391181258084732,0.9063309472238323,-0.003902242590583027,-0.8944955285757605,0.5107066911731517,0.7486121619279809,-0.5017436227615346,-0.2306151016185971,-0.17600252942230976,0.6431532487844551,-0.213061739032411,0.6455314856118413,0.34695888403404185,-0.745205269251471,-0.14350135629994343,-0.25569061913030655,-0.5033592463689518,0.13147762305916233,0.733966148675149,-0.13268796644266656,0.08565083737720047,0.3702015950289186,0.7114918089496807,0.773509660612762,-0.821986264766509,0.17476693413747535,0.8953131642300978,-0.9748172487130151,0.0429028330828769,-0.27666854145415587,-0.3734084000113438,-0.9063503106338495,-0.9629479240386141,0.49056474916794857,0.28383443457229607,0.9590431935021193,0.0064172397293085215,0.637366987568728,0.9180122520018945,-0.027765212789844673,-0.7965690753212351,-0.2485578660833896,-0.23290931450824237,0.5188007077513999,0.6861240884051738,-0.07914390822315776,0.2613292900668205,0.045235438685052864,-0.26088833808863243,0.36457679569982826,-0.35802673645436367,-0.5637432423593189,0.8455658723588788,-0.2578982272419226,0.26053388759171336,-0.8556272059357146,-0.5251918455733446,0.6211343290461455,-0.3502864537175938,-0.0871092613368063,-0.4702066288578175,-0.9586782698937899,-0.3318800039010117,-0.0678322559556852,0.010436667948308775,-0.7112412744240157,-0.5942765598625976,0.3592910751671261,0.8097942115549426,-0.5710981929036962,-0.1877229432681422,0.2616595131360866,0.11800407584735773,0.06571686088585116,0.8754110309016678,0.8058839029041991,0.9630104080677506,0.7976468037252307,0.13753995450852252,0.4409980867936094,-0.4497222335860984,0.03710988853234709,-0.9155105415265958,-0.6424009380146349,0.09414778500972942,-0.06987121402981367,-0.03933054863721264,-0.9336900136015251,-0.47359404945259365,0.9211630170203482,-0.75513712271732,-0.6095579133208509,-0.2984509847812382,-0.3199199589877717,0.6754765196521928,-0.8573886035100675,-0.294052431066141,0.696366672802303,-0.061478342337449865,-0.6874385204519713,0.6875820878439542,0.13032806722686963,0.07313759595043212,-0.02859862591337281,0.28645769789798226,0.36753579150646853,0.03415426636414187,0.9449585915873937,-0.34335723694897013,0.9518729689703691,-0.9593253211354489,-0.1755386855712664,0.23671277446073646,0.20134399812012416,0.17048876882948383,-0.6397943112395299,0.6323504030446916,0.9757968966745187,-0.23497720402264943,-0.37854927855936804,-0.4833300544356085,-0.599892850115918,0.014820806540260634,-0.3416114836543933,0.5828104969856207,0.5631108879670625,-0.7006852386468037,0.2530761966644497,0.23382320987632488,0.007120694368776492,-0.4515204435109408,0.8417085756080378,0.25399990490513424,-0.2806592441930127,-0.9387946020340538,0.7238176618718806,0.5903933765660376,-0.49107445007097095,0.27751736050096487,0.7118335206511968,-0.974027021265776,0.6843631664518435,0.045921706925725836,0.04000111498185399,-0.19705241653444472,-0.49183774459668217,-0.8059560187509069,0.6339268715097781,-0.1680847675203765,0.15632966241106128,-0.8803362149259253,0.21805617270000477,-0.3256661067950628,0.30911392908001023,-0.5774284781108803,0.6831895880837615,-0.5708905489970177,0.12249293294945329,0.47301235272155395,0.17662241571774784,0.13190921210802697,0.5040512514905509,-0.2945500103327685,-0.1678334208691865,-0.4279054130461515,-0.46867499147765135,-0.31727386866142515,0.43409633896820154,-0.2910211656697659,0.29874167995306466,0.18488049063843537,-0.23220744696706452],[0.6525566088786265,0.6194934407082948,0.613414279103621,0.635215172181798,0.819172894121067,-0.1529488171129303,-0.6517087694251162,0.8348568749539842,-0.40609118561388,0.8082715632838748,-0.0498001810674793,0.8474350388480267,0.5564328083549359,0.4784716170101795,-0.7693486291505112,0.4386651858992783,-0.6251163259072474,-0.3906480331629234,-0.6785508016285666,-0.9624591414337804,-0.686818134287581,0.6071913998192211,0.1858117101644723,0.9521409164747223,0.1020730363659248,0.9836798779316116,-0.8257472946337674,-0.22451527311109332,0.2614402146266861,-0.43857071381568136,-0.2040565069253213,-0.4716622856204489,0.680553453394299,0.1373290942098162,0.36844937377514,-0.4672336574511231,-0.21305748155918547,-0.7054884961110617,0.6878260079474343,-0.05781589585030256,-0.4586944495889482,-0.5524750009966726,0.941353481755582,0.7838216200824879,0.04183789420351869,-0.059921587047768954,-0.8868179076205474,0.4504005999204814,0.2869924442722942,0.7747039459137508,-0.13244930721278436,-0.11994423128035736,0.5996920540403634,0.05945165552012277,-0.9683686964017106,-0.39495399359843897,0.16263467487825722,-0.13719062283269134,-0.6219391509976628,-0.9020165619005185,0.49647447964477354,-0.2568372762688036,0.041546539301902774,0.5782010631355996,-0.3221901676404353,0.42234389940199946,0.7314090293849362,0.3585349673672653,0.2569595088748584,-0.9266407080239851,-0.8127618355756308,-0.4804502578539267,0.7678406982908033,-0.8639196053755176,0.9944771980663687,-0.18709221880390658,0.9384915478907161,-0.21540758259057435,-0.6968102938762624,0.7454764121754227,0.2868811374904079,0.9713510804312504,0.23017179816265432,-0.18243801713079888,-0.41106686129429026,-0.23588174380004467,0.41807600598712824,0.24512429630936228,0.5765859191562019,0.4009617168002251,-0.40755931133100765,-0.27764393084611005,-0.15850025959383895,-0.8292127056795586,0.7487774313423234,0.4206563067175728,-0.5348586364195325,-0.731237806183969,0.22090578570254937,-0.599683242170103,0.23032005034942693,0.15772933803261324,-0.3548543220927074,0.1939871976816281,-0.25255261942674134,-0.012986805370171606,0.1901579871310657,-0.07156216040155838,0.07051700733277122,0.20648801737141476,-0.388308374190208,-0.38522223306808945,-0.09712693698988084,-0.024585504833443794,0.8861604727480994,0.2321932747685651,0.9776030913002443,-0.6471135728148549,0.5031664397982134,0.24455199674584693,0.2573802642938574,0.17779851656945334,-0.590212110265077,0.15998198169826483,0.0993971198621868,-0.9333802793059076,0.4927197336483349,0.7124875769315946,0.9108988760760599,0.20596133260890004,0.6630062237866834,0.1373760958333603,-0.33873442748457805,0.7315324617607075,-0.11548595325324773,-0.7877752670256433,-0.8541152252259054,-0.7277615071890604,-0.6967474341930033,0.9206494324638901,-0.2632945295392195,-0.8717725619631536,0.7273749151089381,0.4262928188701669,-0.3219091060175969,-0.4878105328256612,-0.7249806220681014,0.16711769713173785,0.6378979131568074,0.37950797795768465,0.211335702771964,0.2578426308541608,-0.8488598495950399,0.6424608568000019,-0.8965947585571032,-0.777957178018631,-0.8520266070463676,0.7488690052084566,-0.17555177382456222,0.9249380144846935,-0.8849348110984916,-0.8720158651173668,0.2686584380791006,0.8800424665955182,-0.4489368984756068,-0.690270381381753,-0.06637513253204919,-0.45354259252722673,-0.490294231517576,-0.017750343406629954,-0.3582770728770439,0.08600096594661188,-0.7734705903449315,-0.17853298900205217,0.04045426569009303,0.4578562659795453,0.39287403453508585,-0.7382109357438624,0.11969675004449476,0.022324734644019406,-0.008644931210331608,-0.46597651909497984,-0.5321064478586175,0.3584351781528452,-0.5170264472875079,0.7986930735586226,0.1483354745203065,-0.2628871200562477,0.8412034169578784,-0.8945861551877157,-0.4561674180944093,0.8620773687197922,0.2121314919477999,-0.820146971267927,-0.09645832976238466,-0.983671961521281,0.9863772021347499,-0.5200992024147502,0.6702507841723369,0.9880181741161211,0.23205185899042036,-0.9158825064209755,-0.07899326589872491,-0.9718687844666107,-0.4212412561683325,0.7870369753670345,0.44695117109945337,0.8974738023388424,-0.70652619599224,-0.5447072816990592,-0.1486865466493319,-0.4622127094041599,-0.9514720037077948,-0.2096215759853881,0.09310876504448018,0.47212465903905776,0.45763188902853713,0.4089111158810068,0.3544087459032892,-0.10298566277729959,0.5555576630133663,0.26571687434214053,-0.23026315607741754,-0.19482929713506691,0.7469803466464593,-0.9562290954275297,-0.02244468780074782,-0.8536452303711055,-0.13468271686665356,-0.5695216295888768,0.10549861302265406,0.9399632580628321,-0.6779618727877286,0.5761286713236047,-0.1262048754226195,-0.05739069377692929,-0.20650567469461634,-0.9172945257796197,-0.44252519690305947,-0.21106893839675234,-0.8436369345977337,0.8754757692355493,0.25282098768860783,-0.677292116590281,0.16668962342247484,-0.4800012216456868,0.44331476044777696,0.26734011984793327,-0.7061182702327955,-0.8134445953068459,0.457776314322881,-0.9267109570476189,-0.6864178983238771,-0.4639380286142125,0.8089226879851599,-0.9674894159196181,0.05187069834804081,-0.4257651554691695,-0.5117226726064268,-0.09583526395230368,0.4959338304904042,-0.9713100853918937,-0.9760321438775423,0.5588291029420283,-0.5251717623891841,-0.31972485391525884,-0.8761422283287224,-0.08819713051626765,-0.4266723178252696,-0.5482326307673637,0.5823450828652235,-0.4941837407364358,0.3127844585438515,-0.11581531387116173,0.3457685713129366,-0.27974168005859146,-0.6165008836782315,-0.534344763199911,0.8254002261106907,0.6132657822314838,-0.1732960231146805,-0.0571296033292672,-0.5338739733665572,-0.711943989638733,-0.42243315272225934,0.2821992312271564,-0.423789140666754,0.4481920502494765,0.8576755102379634,0.2070498082492791,0.6440449677067899,0.8775354986918542,0.4477911785691209,-0.129437772626938,-0.2749386046498974,0.09402974451828428,-0.4524796708513974,-0.8923675554863308,-0.6488707234636291,0.6276593454598438,0.6924777140819522,-0.2372773035313387,0.48999157074820054,-0.038750032709131466,-0.7315428350782691,0.6187626735219036,0.18090781964792058,0.16819832290153003,-0.35299328109370043,0.20962066174577276,-0.6905393049947266,-0.3296673286613865,0.8009245888482819,0.11836359181490619,-0.33885203610562065,0.3025743480745451,0.595448183223986,0.6351265801686976,0.4361876522299615,0.016937784994136562,-0.6582837739234308,0.7582505209340045,-0.9940711572984935,0.8601824723576794,-0.39840174391351213,-0.5414227718882496,0.7595834262426242,-0.8189413791498168,-0.6773954021129798,0.944670707978114,-0.8789744146753848,0.4377888263624179,-0.9878137297760321,0.7427378726747962,0.4498353737437757,-0.0013682600589255411,-0.03613447991498253,0.7838272891468518,-0.17478117609177501,-0.32039113443607325,-0.8792790231352381,0.815230049184678,-0.36373904434969284,0.8912400674358185,0.4803317204742752,0.021693636455777154,-0.06442361160369225,-0.3850649708812801,0.12390538209652391,0.8494888610458502,-0.45501575090641655,-0.5052761678717164,0.7356165431770829,0.4709379655205128,-0.07852891239428561,0.4057853353716043,0.7067290070414416,-0.8292823034121146,0.05761374494491389,-0.024712325384947942,-0.21006193479515556,0.8142951488138799,0.7912656091746646,-0.19786529753282722,-0.9887849391959789,0.6325428339386825,0.8532944381198038,0.10299794300464749,-0.27473293442441826,0.2369014376898968,0.871424651438143,0.8254102501807703,0.6453454793381213,-0.16814106524387484,-0.0844078831022117,0.5835732961595594,0.24942220314138153,0.03616281454892167,-0.11733505204799766,0.9178007758665492,-0.19678485491607822,0.9645836910809913,-0.8279047015209335,-0.8097877354607705,-0.973246205013272,0.716172285149502,-0.20295990388731,0.5136108724881796,0.7771850358826833,-0.43921057163060695,0.3974413203004974,-0.599691056855876,-0.691009603190976,0.6941495580292028,-0.4232996445650068,0.26399685723046895,-0.6021929191666457,0.7872584885789566,0.021280438914327737,-0.40114281587913037,0.331164920144877,-0.9224450454129585,-0.8137959846975908,0.7732644843933774,-0.8958121509445462,0.9763827368171369,-0.10634791224815587,-0.043155070445207055,0.1038007263902978,0.16925052273647645,-0.30602289456293796,0.8526111288389817,0.08321694046226025,-0.3144842376485797,0.8371341768860869,-0.8406681858130103,0.7604531329049424,0.7718418808236778,0.2653686279237448,-0.4766922502961166,-0.10040042521133463,0.08783748035260897,0.8959253218684937,-0.36995079321479185,-0.8239536466657875,0.35988544563870906,0.09150622419015098,0.6404877869939014,-0.8013127691464843,0.5561534845409659,-0.32063612938044583,0.9449123336284759,0.9472237691038976,-0.15775008290511416,-0.7073275905265306,-0.41015388590971535,-0.6836490519229135,0.556664501367502,0.1519813093014677,0.01508722788884409,-0.724391534034053,0.9824793780302314,-0.6779056724517705,0.7230928771878864,-0.6363551352274042,0.8619193878754556,0.24434587951483566,0.020045300969881552,0.9407451968422882,-0.3827978842481401,0.47551289923846585,0.23435986832305233,-0.05214092084400712,-0.24402345514761992,-0.9376011252951666,-0.5703674587784462,-0.9603983208586195,-0.2289219458738765,0.9251595310551286,-0.38348741016146204,0.3002392939317473,0.11868856060923982,-0.9355738408664107,-0.017880351897700875,0.1504782163037881,0.625745802655975,0.22636983198599747,0.828992776619131,-0.573765571888796,0.055964953320431166,0.11679968535999397,-0.762933821316043,0.7809892293350049,0.7964006837259812,0.5070968401959344,-0.5025231960362235,0.3405926206405654,-0.2554872805810644,0.43097752542928913,0.4516337968809878,0.5738005865270848,-0.05862456808821759,0.06343086854507951,0.6540584105493812,0.14719090442368388,-0.04130157588304306,0.08244151435116054,-0.10572114267484078,-0.7728152330368308,-0.9555024040984761,0.8459585591688741,-0.3155075088293826,0.5926080170350587,-0.5130880932627633,0.4622216278730742,0.8593084407087543,-0.6617544177405619,-0.8620340282663455,-0.5572640321743134,0.8383619130937832,0.9142791906679795,-0.3268196902871974,0.5157668596294982,-0.9059993632758583,-0.4170339475595082,-0.025133321561282784,-0.3139695417054338,0.13684072451103524,0.04904928834255684,0.07586346635176877,0.263991821665003,-0.18769726846700197,0.127295535472302,0.6197861418801869,0.9081492707127243,0.28699282870264664,-0.37983254947976675,0.7295332214946344,0.9894762602075342,-0.9568761289896393,0.5334468737942055,0.24071643432970702,-0.45813242226100126,0.4562768449977139,0.35867546725895827,0.3754851340065697,0.8834475314594337,-0.35789114428542335,0.7074811056002295,0.545667512637388,0.06926965360218063,-0.1033922346880729,0.8248019733959402,0.36055025217327374,-0.7598891638764331,-0.901111908912192,-0.7126716834817162,0.8392369083401299,0.14546230995720832,-0.8826228274750125,-0.35129569587512344,0.6210793587751398,0.09718781635700102,-0.9806674227179502,-0.5461843994838826,-0.8356249588178695,-0.7070920696930756,0.9075776003792149,-0.9456418329700491,0.44172054179879705,-0.21361534841826035,-0.17596552045482916,0.6107730604125896,-0.1277111659561796,0.4794873897047449,0.5333782819657285,0.2887963479461306,0.056847643065779385,-0.4334775797054444,-0.970005260331273,-0.0031083670157054932,-0.16808210253957467,-0.048286955020611755,-0.0031596999313969754,-0.6291987290681633,0.8610384920112606,-0.010926061267544585,-0.24547992833610532,0.23519897972163384,0.4393125907818638,-0.8284105139394611,0.515438112297814,-0.7626440716038603,-0.023052550347419043,-0.41595402351095734,-0.47542246192856474,-0.8019589607991802,-0.21405106628240111,-0.7831693093206988,0.8165007089179637,0.12581522894475716,-0.07524936226496903,0.13509026984603878,0.6141559185801142,0.16684105199698762,-0.1991552994129424,0.3266364781611786,-0.18467270422988213,0.843028205664788,0.9538277599225564,-0.0974448810421853,0.8814278047227773,0.8925741990893348,0.6685447562997537,-0.14883671786283892,0.08293568225494274,0.0052230425018870985,0.018115074000127462,-0.9143907007766168,-0.29782272560161016,0.7246122188808346,0.09663211642294645,0.525462074003544,-0.1365647047113392,-0.32838065877661005,0.5263756143339124,-0.5186555822076784,-0.7118323128585975,0.5748777218007326,0.3661021427855977,0.6723922274109471,-0.05774521652824838,-0.6664038455231747,0.3745769051910015,-0.5329847894518431,-0.09106607963314128,0.9637672819686849,-0.0980506934533103,0.3350681820213828,0.3386434565632672,-0.6309284168476976,-0.17733222637777102,0.3777201315340841,-0.9760398178389829,-0.4998725661672536,-0.11169689369088753,0.39909089457122016,-0.057577631184626776,-0.3961423587856936,-0.14637672283921144,0.15397562907519058,0.3481417607737236,0.26741313272115486,-0.3290553003007324,0.470968448208509,-0.11049134202858557,0.2745997315647677,0.9918556487941586,0.20384041590323165,-0.4886027446542349,-0.02513429596239769,0.3009657098706793,-0.8937558875765415,-0.8018516482296494,-0.7034123329351274,-0.2785787394513102,-0.7641403956695678,0.7809480528811901,0.09729713529086848,-0.5950729243089561,-0.17467138293920637,-0.06701893971125683,-0.7532575251030513,-0.07480504849317593,-0.10559735088769928,-0.384868679864502,-0.5026608300577382,0.3596894904273191,-0.5585482928354195,0.21545533236658398,-0.5246661830067116,0.9525632074254853,-0.45275347471213623,-0.8233963278285343,-0.8020098745941961,-0.37373202342757805,-0.1483001357908993,0.7783916036721952,0.22351569214952627,0.4597336082721295,0.7536656937901585,0.33123290691280727,0.6162047096013914,0.2875889138139007,-0.5869972197286191,-0.21572562992050903,0.06406449076364185,0.9783892667710208,0.00570554178969318,0.036652522540254306,-0.4137068612181025,0.20693751001563943,0.6782173122924908,0.8388066232736595,0.2029314325421594,-0.054169014409048755,0.6326084864970711,-0.9489006084545746,0.8121473678804523,0.4787879245882771,0.8151069141660476,-0.4757713816936917,0.34763083739098066,0.4500019461629936,-0.08905896582318928,0.39880985908022626,0.7544314422239538,-0.7151302121748078,-0.6168207246352013,-0.04632378181488117,-0.9814471334032422,0.11350479799982427,-0.6125169548759495,0.5042793354390025,-0.2642748918381497,-0.9284314889185643,0.7890774536803471,-0.8539627038572168,-0.19035692032997953,0.5427882082374873,0.24764839954503048,-0.8012303364360209,-0.8216435214008486,0.6844112083729854,-0.7302759657932767,-0.06555569640798842,0.3642619045735309,0.3859651026191593,-0.5747203634187128,0.09900650004482303,-0.40029964106356886,0.9718204102866326,-0.3973648088227808,0.34505589343415544,0.8861676210679088,-0.8503680276280532,0.09121799466050162,-0.09190047880750618,0.8075045017065285,0.9926160542134947,0.46393257225965123,-0.43329035038857255,0.5044718035511391,0.8469905896588381,-0.8213857039257086,-0.680482311732922,0.43931541248549744,0.8380006401487674,0.19963585045730015,-0.7827639232199055,0.6664566959136313,-0.31346406464231436,-0.06962962680345797,0.3207618783105177,-0.8123441796970938,-0.7882968786069047,-0.09726482686010152,-0.8036580542191862,0.7883488556468108,-0.028658426611319898,0.7191869898878691,0.48332818413085676,0.0022350465338709657,-0.15478388246237884,-0.33713645352110255,-0.26285660037085545,0.6183603866442084,0.8508169999607833,0.10548722096795649,-0.09975209692551656,-0.02014535653152283,0.3317765603858702,-0.16074716347420592,-0.9881368821049743,-0.8579124334910868,0.34322329831429665,-0.8838316594890059,0.05551185053950025,-0.38359621254933707,-0.35875548191991036,-0.7727070642175091,-0.2766894012775154,-0.9276091321311752,-0.9958133761317018,0.3294097252726469,0.2706961516712023,-0.07012412229211362,-0.9655535529659627,-0.033139652275345766,0.1824780189308346,-0.35542292389181296,-0.20725693546499357,0.5773157119397545,0.5763635889636967],[0.1719061538192268,0.8041492265994392,0.9307360062470122,0.5176479561715537,0.08370866455742876,0.7966059970272996,-0.883375899018306,-0.12240236551285433,-0.3539910636808672,-0.7236094202066947,0.45635608801779437,-0.09888100493118901,-0.11752467580483161,0.9848199174397534,0.5290921629450571,-0.6840301091755645,0.5535428017813941,-0.3730349469911971,0.5336356293008133,-0.028188294523421975,0.3205730997952758,-0.2225601150897467,0.8517773843319383,0.6582473663454427,-0.6198029719718257,0.8498029037679593,0.308345888260132,-0.09536357257881622,-0.11381445311167471,0.8373732202049007,-0.8764198987235277,-0.39880113859729316,0.5135427159034645,-0.6513383117537421,0.3568082894724438,0.780854251494113,0.04945711914931783,-0.035658462191312745,0.44605839569467576,0.2671606741838999,0.10329938848215559,0.5937248334762586,-0.33127332454688907,-0.5347250072959884,0.7212087194889159,-0.22662780233138835,-0.5999274628522266,0.4236695902338685,-0.8008745079666997,-0.3339606411699141,-0.09657199814913842,0.14245990513514917,-0.37018969622124676,0.9507247617139689,0.559611602211326,0.2640623586199895,-0.17241210879661173,-0.8403952636194365,0.7946516340013783,0.19600180722786975,-0.292855818122582,0.16485415613396048,-0.18684721071277566,-0.23062798603636558,0.9491517649027101,-0.05666001407605714,0.019511501079224836,-0.27628104489257344,0.9156162789011131,-0.4528028588289492,-0.3419075999379553,-0.8266098926149954,-0.635992651266218,0.8126014706948106,-0.542671020365971,0.8711535687178169,-0.8643594001706012,-0.27365720235762336,0.9089831004636322,-0.8223167046989661,0.5044666175733521,-0.18350915714490545,0.9855362500759901,0.5884192500437797,0.33175729465968096,0.14379268050599214,-0.8041728714605321,-0.5351603707372732,0.2887257935726575,-0.22925135816516073,-0.017403833143559977,-0.5865240455170875,0.6068645946025142,0.5210906707653389,0.5904761274358474,0.4294780171050394,0.06358111898949881,-0.11394281917701021,-0.022034902035813708,-0.5591026406459796,-0.6230933062506283,0.05003630396036107,-0.8115803705189366,-0.9212273609102104,-0.7856796132009849,-0.06380038096154328,-0.6276517667255543,0.052116431898297844,0.5540671654716105,-0.6944743849848747,-0.007437564246292938,-0.9392679777709021,0.7493244815541709,-0.43698172643853606,0.22828869341872315,-0.9987081794306982,-0.5990010182577217,-0.005053905225569588,0.3136410214310421,0.027894013075989932,-0.6977444067425795,0.1789751680035292,-0.43097727978675304,-0.12140408808821013,0.7724881180522674,0.6047497179796302,0.8297298160832092,-0.45802969505088353,-0.4999815710283506,-0.47152656302869667,-0.3735544031536857,-0.4218412084099201,0.2564006908943428,0.2743790803349333,0.6349260377090191,-0.1768811610312131,0.3088701718122224,-0.7888656420458173,0.5873274549521716,-0.25403578885567146,0.8927326096606414,0.7999557228932892,0.8266608295604474,-0.06760260781408167,0.46865156850718703,0.29413358315909677,0.3731866423857344,-0.506177692368833,0.6583536813963711,0.9198012205759338,0.19579032686214104,0.1504824414353334,0.3895096348422564,0.08314100964971383,-0.9082263838229954,0.8360901070987368,-0.14681878001867266,-0.653122861143079,-0.5913030752876507,-0.6705721627603047,-0.8019090173902828,0.006662774058765697,0.2281841202530268,-0.613100550930106,-0.7206342638791292,0.5788109528840215,-0.55770869311852,-0.4433697842620121,0.5609712481074969,0.6801981429285329,0.7244851791949585,-0.5076794882916533,-0.38740643637107075,0.3331162895039006,0.9974730121592141,-0.3188155766426739,-0.2883003280784664,0.020793669118617686,-0.24395086252303755,0.8061925496819988,-0.03048218011632331,0.9069148722151459,-0.7624866661727288,0.4989609587104167,0.004749449772271541,0.6012670624145704,-0.6172436011467652,0.34726441424784094,-0.6436948473173876,-0.9773563427329977,0.4301139024736915,-0.3405455634604886,-0.8658478903121454,0.22445132880464636,-0.7272385755828032,-0.12673085213204205,-0.803046650658686,0.8779061701153048,-0.015102644955669264,-0.6050650095543721,-0.24413673991353813,-0.9917582611911764,-0.3365346033170691,0.3737432546242867,-0.4488267943695181,0.39327617147677785,-0.20752437667089296,0.12191611433661476,0.21884575898008785,0.5529507930138904,0.18781175122696525,0.14989231055080943,0.2792297427907451,0.8516238389772672,0.17177273743507637,0.8443086544406071,-0.6673579900256714,-0.144342106200273,-0.04368736211690338,0.3135767908136753,-0.7217365862733109,0.6186446575912368,-0.09604238900806683,0.7794027479966978,-0.1131375734027864,-0.0015160578224668875,-0.1590718012524026,0.9669915301451302,-0.8597763567287575,0.045662575215370094,-0.938582040251229,-0.552599154207609,0.08404858506872093,0.951039595483647,-0.7773708792876524,0.5020865748225656,0.8935545820509301,-0.04981205180171844,0.7307188629122428,0.020461929001590606,0.1947672781352281,0.08049927721855177,-0.7599364565824673,-0.22056330111526568,0.4995945527709118,0.7957863247837098,0.9311149112979227,-0.32044631358031705,-0.22932820506550344,0.6050842267608121,0.08111762868708694,0.09123309380889788,-0.9958003948421346,-0.7302925034499606,0.36885530092263163,-0.37290366741732295,0.9771131217823708,-0.3503251599940904,0.7339453001034866,0.03043985654778969,0.7382740451885852,-0.4011986790141613,0.5651000027328086,-0.6964311734836357,-0.7480273879063606,-0.9134479523178631,-0.8092330203292264,0.4958827999399775,-0.13445614039031994,0.6918810648232523,0.1657257422391878,-0.48968232437799064,-0.9178973408744171,-0.4856485401799666,0.42508444014670865,-0.6750298757493141,0.6767683089168854,-0.6103456714677418,-0.1010077913529086,0.05258722677760863,-0.11202769626064435,-0.5055619036824368,-0.012161190200763228,0.10476046918609949,-0.39880520202200453,-0.029158910047827558,-0.12200161649742447,0.3194224437007085,-0.31315414518616524,-0.015168626796549178,0.6583884102556647,-0.01705857368080066,0.06553328612625964,0.6228247322743095,0.7635054011735944,0.5554324187554902,0.1336334005704829,-0.5332256593990576,-0.950416238068408,-0.38804643976044195,-0.19181254951514237,0.6741467835417287,0.5687908965354302,-0.22429822527129484,-0.14475786742695207,-0.7946168757310217,-0.6668494725863021,-0.3566841028538432,-0.040714561524561876,0.41593271992708525,0.9568126942969621,0.8115832723805483,0.46244332122542087,-0.2836706745584481,0.9940546307973144,0.3537653355682897,0.9747464989823735,0.8948466307835583,0.5501264658827114,0.25141755920326303,0.4705307569937116,0.8635856266947062,-0.6836462391182039,0.7809514830498256,0.29489419778041204,0.6497037229219875,-0.7505925769303283,-0.255052293743409,-0.13498006244584548,0.3268095646510376,0.6222619595512224,0.18475293831093942,0.7876568249064955,-0.424043832536519,-0.8125412554780016,-0.8792386970503392,0.791485434450256,-0.11522779450790122,-0.9288904949427053,-0.6221682851813684,0.5493405779857476,0.06670963045165124,-0.2297798902771777,-0.23595051727730731,-0.5463505083951932,0.21405367400655417,-0.4768957693640652,0.6634787377758524,0.7005121195896988,0.02610969644847505,0.7507159176093534,-0.2619952761833657,0.4677873891008737,-0.5806605853235325,0.9826528460234323,0.5380923263200843,-0.13781893043600735,0.9025116765055614,-0.9666134514514657,0.23148125240742523,-0.9802421489171642,0.23742238186121112,0.8386113701472662,0.41377551599669093,0.4963446672816594,-0.5269261063665469,0.10237844929234341,-0.92773572148471,0.7842523502253698,-0.6496797523513844,-0.7588736331382187,0.1136552151701673,0.3030201771834107,0.29131179761938353,-0.5666433304627838,-0.3378922456751259,-0.9837612461213054,-0.11331712173430963,-0.46037494028781856,-0.4886997400160089,-0.09824598002086371,-0.0942490529506399,0.026678127929290918,-0.49434652758647446,0.12175559618287135,0.37227445678232884,-0.7243766323216934,-0.6100344727908378,0.4781653762014344,0.15938116464047392,0.5721290845368292,-0.7322377583843984,-0.9045455002237781,-0.697578194997035,-0.6662082132144622,-0.9184832907350133,0.4364023370078962,0.0256507797565515,0.5145289662871779,0.1436737210198733,0.8612573760904298,0.21787385586988917,-0.1411682332897426,0.5384330313331849,0.5602509120251806,0.3901517563467731,0.615239211825225,-0.6870024411434639,0.23424876415636975,-0.38211409004669705,-0.6656349350336601,0.4031551634836541,-0.5890748555282508,-0.35943447835977826,-0.729741515884865,-0.05397348526477774,-0.8338979386634782,0.7365468153786032,-0.5052101174524561,0.23866072093777646,0.37752632728655056,0.39466608743996145,-0.6059780699090023,-0.8187101576029712,-0.554342427656308,-0.2989181342029408,0.0826541533276497,0.3375643397217971,0.9286371928862425,0.7684225252019041,-0.12453663567945128,0.9997125797656674,-0.8554363377571261,-0.01883504697120464,-0.044808338317757546,0.6868902704424322,-0.7998300535924834,0.7288041352673049,0.8139548791903986,0.2609830783509117,0.5480721504059518,0.04084457589419177,0.9296163395405095,0.7505634944859361,-0.2534098804620655,-0.9299331967821753,0.18738959925854526,-0.8684282057415587,-0.2547049578739773,0.8883550736474313,0.17648574578849519,-0.2469869252862238,0.3536036764005259,-0.8757412858279827,0.38975591708156143,-0.6190369786364638,-0.8513488619850109,0.20890794761197107,-0.06339646425178014,-0.19785552041835364,0.8125923533368675,0.13746605407919854,0.8586732837827162,0.9396021461883983,-0.37167484653211247,-0.39601494220041267,0.8736524420145171,0.14722596614389372,0.6599077563558358,0.5761664401146729,0.39898687058512117,-0.26008399714956965,0.8995731771071025,-0.4368170609994271,0.8969165333450038,-0.2500589813324421,-0.8206527409904212,-0.8716857016655652,-0.6459601053841384,0.6338317927921091,0.564455516440409,-0.5523431243644683,-0.3080337399448203,-0.7718420444686573,-0.15459461029457122,0.15022444733206752,0.48241795755532757,-0.6852184139506587,-0.7828216086280473,-0.3078670581387777,-0.6590114662771713,0.7093307782084861,0.6567996422037199,0.7854927107777585,-0.15703023798302373,-0.37666392594305287,-0.8716532245461153,0.5075846260603449,-0.45447259415979135,0.45488899603953015,-0.670753855879443,-0.6776671372132632,-0.1553144700356599,-0.8287213369914193,0.09551438477382912,-0.3768184496157907,-0.7302884151584241,0.39547345143577295,0.8637737353550636,-0.7908536100389987,0.5868643818373296,-0.6846404307104859,0.4851868414049558,-0.7838866565083094,-0.03551423787101182,-0.37040218965796745,-0.3308668564658481,0.8037216718666895,0.03242967012501308,0.31253865763235034,-0.8936242566906332,-0.41181030291597565,-0.8274701136279123,-0.593442022809731,0.8229209815635403,-0.08862110944706725,-0.2552909603422553,-0.9262882532888603,0.384293683838818,-0.4936779524477626,-0.9556629416093487,-0.7014785761740654,-0.5352599570182193,0.02143658244702462,-0.5089389596815748,-0.6917034557770798,-0.6181985820640095,0.17624710115120124,-0.7874150767253427,0.10882076594465051,0.32570093437432046,-0.18922567390476086,0.9105897773959197,0.10681274217106407,-0.5790177052806369,0.07690953649769972,-0.8098472091074354,0.13014041231990925,0.669953800806643,0.4822885267715231,0.9896510291540648,0.11562384905753409,-0.41266601375550116,-0.36807459771207474,-0.31816698284949796,-0.4311524801688844,0.9810773092975853,-0.3703043634327914,0.6824383859465761,-0.5770812645517003,-0.11972269802518043,-0.04692314670669173,-0.13598058855440276,-0.9455830186651841,0.09886951258422227,-0.7327145452430692,0.15460329604746037,0.7807955616635649,0.17778857368345657,0.6226163148538353,0.5359680203944113,-0.26077027014549303,0.08896261707243514,0.7943560100596363,-0.7341816572872235,0.7988950065498226,0.6588170894157444,-0.10661675411020566,0.508840060559772,-0.15705418273925087,0.3737529955384924,-0.26709680054445006,0.9840594314997055,0.606550393326516,-0.4629419189320707,-0.5715792154054806,0.16186041416089458,-0.2801093082339827,-0.8780461112729472,-0.41421269306287223,0.19050606322162156,-0.3680917364748011,-0.0059239268010728985,0.6640262171411235,0.18042584381917992,-0.8528405810048054,0.289629048693552,0.8433642292295922,-0.7314285288441882,-0.5279382383776405,0.010443982339538804,0.5122623032469964,0.0028948478723209714,0.8111323398072658,0.06485949210125619,0.4855209485401515,0.5698500829894124,0.04689897366683127,-0.5424334806778486,-0.6786078001653923,0.5880465714093162,-0.5229689088423362,-0.4160170550794069,0.004147968112403477,-0.5676156836888049,0.04190359713072289,-0.872512202276077,0.9734726383701744,-0.21685116649472036,0.4275901973317606,-0.779845358631837,-0.6946443909903826,0.49240868327426623,0.6772649213687669,0.6463780991509629,-0.9649851248807029,0.8921709019601904,0.800147838932286,0.8752854771077054,0.5200691933865906,0.9098953171601114,-0.8816384308218832,0.10505510665729223,-0.7027898215023636,0.12409040646231029,-0.3737942315341931,0.20906268358012925,-0.05455591777465574,-0.1651972882025856,-0.8852748669864341,0.8409950049961923,0.2846524042225955,-0.12323023610802553,0.8870417546955587,-0.1420704301972726,0.15048108338706,0.13713698705250388,-0.08449677035194325,0.3505024244903929,-0.8286117416325236,0.38646672356520306,-0.6743903556665654,0.11392489101896164,0.1874207767783207,-0.17006537575652625,0.22172476663800333,-0.4148394590241913,0.4707619572989925,0.5319438667822383,0.44363988587609193,-0.7005978083264623,-0.9730730177477964,-0.9065356035669279,-0.7816967848052085,0.8168713301719925,-0.985365198596259,-0.1737566307069125,0.4566648657727299,0.8946026324314451,0.8883662729510002,0.21030721362645033,-0.49413729399112727,-0.4895423233830336,-0.9306996740214497,-0.6164699721690323,0.593563070779916,0.9961314169998385,-0.5049084275251088,-0.4435340634473459,-0.07491303953291006,-0.8889754202769384,0.31438710890303767,0.15914488033319185,0.5734627668107157,-0.6131886802605453,-0.30346675954735436,0.8921891488294731,-0.5988302356727044,0.5353046512606836,0.24914121230994501,-0.1487429384709098,0.6958173118766668,0.07488046421436856,-0.2796374638172221,-0.13166759045379806,0.014845870788283477,0.9437764192999045,-0.12348928976535412,0.28358578650275934,-0.8444295240873343,-0.13657122428523194,-0.04113253764409941,-0.32933605189154114,-0.5107507449387017,-0.20294967933579233,0.648981800840498,0.666630392262094,0.995701151249885,0.27603776326549156,-0.9401053557508541,-0.8065489214255845,0.31429729660157935,0.3667725606765708,0.5016623671723404,0.8761512816662782,0.18306024211909433,-0.7987441547591541,-0.07501763184964383,0.10815245289846187,0.6725486656014112,-0.9077272755729295,0.5401970077704992,0.24893579302564262,-0.7445553290198839,0.7115920528213273,0.8070423981238626,-0.20157659540587658,-0.7054552880294271,-0.47248383630155266,-0.891273971453423,0.3796936708770253,0.23040629461115159,0.5079346869892518,-0.7797728236442687,0.682756257069818,0.04338191367207789,-0.24222731434136135,0.8488227424537289,0.09544237534893907,-0.9945709968428837,-0.7737241185511183,-0.9937314910495578,-0.8811796813117545,0.8192094534312853,-0.02927695966680388,-0.8470425254151333,-0.74641259459436,-0.7043822677986826,0.09380476441095142,-0.9109407198601498,0.31413713548223376,-0.403167512265745,-0.5146235843888851,0.04700458082352621,-0.9424232296540267,-0.9839879429965563,-0.001687590234629388,-0.8734478915171728,0.655740637520591,0.4370808772676611,-0.24430346501987543,0.6601900909069935,-0.10101523578479332,0.10858434486479673,0.4420078809990262,0.8253967490357283,0.6581614685688093,-0.3761200372309783,0.39928700095703973,-0.9249248976688822,-0.18439609027786652,0.3859464286485119,-0.9229702135861839,0.25049884962268787,0.9774553764001619,-0.8816748920992703,0.9377958318770543,-0.004316165732879851,0.4388331017351268,-0.690493868222749,0.5354763505711604,-0.42785572581915066,-0.7704047941303331,0.6888891898052509],[0.13477537366689019,-0.6739955937257507,-0.04066520672205742,0.3179994370944934,0.9329172133868997,0.9803406319684971,0.22529688448668628,-0.5467864884032845,0.981424020025369,-0.031003241537711723,0.6041219524089523,-0.30947911044463905,0.32893862673812646,0.6850900935063904,-0.9603391026757149,-0.744564132873599,-0.8291665856646202,-0.7316378134039563,0.02902702628160081,0.5556687822490156,-0.8331736607593363,-0.7140352218869901,-0.15583659416313922,0.9648208857091907,0.29360983777923666,-0.35288070513825165,0.5837900387843256,0.029940085652209625,0.7055046353441357,0.29255150467868285,0.39239631898328997,-0.9907947427337285,0.6977194433665295,-0.09011372720742505,-0.604680443808324,0.2135622366481731,0.6418711069551755,-0.47398724462892994,0.7406861873930084,-0.07523481544197441,0.235233512047464,0.7006722184297247,-0.7630576527415398,-0.9133572696100367,0.5848424844975171,0.6679404896478613,-0.4468291653414944,0.9500962319301358,0.7392716989364898,-0.029266092667168175,-0.27857868920673434,0.9675368176721428,-0.4421357354497035,-0.7661877181962116,-0.4430688412775794,-0.38505507643028847,0.8529567062274133,0.07006794811901429,-0.9804791420635672,-0.4960108979352329,-0.3542757156613052,0.10329281183524097,-0.6273814225638448,-0.8710756761747522,-0.9387619500611755,-0.6816820485516535,-0.7420762690041054,-0.10310998129711035,-0.25042932324329126,-0.42245182418455385,0.3936420291195748,0.5684079547015686,-0.6382935945340602,-0.7307277732199884,0.15687950105773618,-0.9496454687881766,0.5585285006383076,-0.045515602250917775,-0.24861896373822323,-0.16877207715949494,0.4327426966069925,0.5433044709596049,-0.7940194227127102,-0.06934615360526086,-0.4184850302849987,0.4742866118777809,-0.978386457434953,-0.8445787732123147,-0.33156121930073046,-0.7387177910594203,-0.3114735389198382,0.02000604494710223,0.6960482265686543,0.788123031972904,0.7968780911125823,0.11956251925931394,0.6175680082113282,0.6250681084798713,-0.9279355820081341,0.08448163065435743,-0.07960637695138595,0.18446410129409174,0.08086655579478985,-0.1600151676817516,-0.7636218813296651,0.9169048452198425,0.030945583652634223,0.8038079110947942,-0.6032723370795876,-0.9534009326415531,-0.056952915315818586,0.708040203042805,0.05690322922028179,0.7609398717764537,0.35974799060409923,-0.4789854296493339,-0.7079432115396405,-0.25289737230383635,-0.47866132503708436,-0.3574335620619644,-0.1635140603270815,-0.9001161723960123,0.9439687322494235,0.5778649650909782,-0.042014449992354486,-0.1981017712780857,-0.4038475488899702,0.6966729102073954,-0.6093496721300751,-0.4958059046954528,-0.3572818168102183,-0.9777526862870651,-0.7594768714854752,-0.7884189483719826,-0.7873074391458852,0.48569903055033925,0.761050735072317,0.9729906793156946,0.9950853768604306,-0.3797157347114426,-0.5426908929778209,-0.6169543838584939,0.8425833588983249,-0.05130169289322617,0.6079686367082242,-0.0669741542617528,-0.6323054017904108,0.0986626222371021,-0.34397161667896525,-0.38363287534652013,0.009711685377180368,-0.7882790954242511,0.23121559254231228,-0.16409136141551106,-0.3103219499425187,0.7091788137136477,0.8292806022284582,0.20268527593331442,0.272872236868152,0.7569450340056489,0.7661931161621067,-0.1497117798255756,0.7853322521892974,0.3768814629016848,-0.05530820957310412,-0.27501071975636515,0.11125140800385602,0.28973505839063707,0.6469551039663664,-0.7383241956400766,-0.6575640466121238,-0.17584931671131332,0.4577569007488165,0.6358171428420236,0.47966957028966273,-0.35720510363076885,0.18286792082050596,-0.30500592627819567,-0.4196560056955505,-0.24456645725430048,-0.5752250724450569,0.5112300290525498,0.7637703422168649,0.9561873213887719,-0.7933216076874061,0.795315776589282,0.5864958893560008,-0.7944657077650583,-0.5253978288022805,-0.3939795917342894,-0.18324195027642487,-0.40879140009211246,-0.38156347068949126,0.32391065054178547,-0.1589052179709609,0.9657124999463254,-0.36442871899713714,-0.22735889936933318,-0.55730202241147,0.46363283205513883,0.3205909563182876,0.9653841696814789,-0.5200993877021804,0.8509474298524595,0.4849921339338479,-0.45409239412800284,-0.7644956348193905,-0.6446242670402615,-0.6058101843665729,-0.860848428708388,0.4660610624691708,0.539046314113812,0.5052064405774637,0.7305469873589956,0.9112766976027191,0.986295787747919,0.08956255223134013,-0.6418652668926306,-0.5816126950902749,-0.020320634365011525,0.6586367792813452,-0.15349947335682268,0.9405303128502422,0.9974480084409771,0.93018626984625,0.20947714442985332,0.37767287860909415,0.7822418668315791,-0.8818039531148727,0.7224128167384742,0.7791755656068329,-0.5042964544907573,-0.6382109213592009,-0.4203492193440532,-0.510748952813123,-0.2627342279967799,0.4961813208071968,-0.7600935990279509,0.654170673974994,-0.3318547127032496,-0.15885095013513673,0.21002680158510323,0.17136271761939037,0.4648198174430431,0.6094762269872662,0.9052436039004685,0.32139579433553056,-0.8489051734063588,0.4154395122827972,-0.0029139380751093125,-0.6478405545040944,0.47092256939921895,-0.4341223309473783,0.11445953799013764,-0.3995329058835222,-0.19736991784562874,0.003669921792090358,0.05890377032232408,-0.4740361809992317,-0.893501321211887,0.7183344843129569,-0.0926525197031578,-0.14958939448242514,0.7641485038711358,-0.8675867710145413,-0.8787936491160895,0.571228436135873,-0.9874950216072742,0.011492261516345526,0.6203357258658986,0.27342313009630237,0.9064014387773183,0.23472194055675755,0.6979620547381205,0.8375462606734603,0.8540725006708609,-0.2714743963180499,0.9171944547650128,0.46108651322431893,0.7767095840512783,-0.6605639063072046,-0.1762095711390661,0.6231247904573098,0.8482478190495784,-0.6630810665265032,-0.0943908171084622,0.6740006124814657,0.22222302597972177,-0.5417990548106391,0.33711466251823485,-0.02289267298834141,-0.11063026847980706,0.32083514016425285,-0.23259781357731946,-0.32689644633572446,0.7864359397585277,0.44806844232255116,0.7251479061853481,0.576550364668617,-0.5653112976562285,0.8696694225553168,-0.42815553695178155,-0.18948419976606368,0.22462233737721182,0.6047027759003092,0.08901249222140128,0.9074455958666303,0.9611200133144544,-0.32451179601378,0.6898713921207664,-0.2480059956313203,0.9041794908491119,-0.7997090971055147,0.11062643029026686,0.2808025644717522,0.9411950587472393,-0.9541909747122472,0.7344434967900066,0.6421226216900489,-0.4408217801748675,0.95430615581017,-0.6994496969842714,0.18251808541179115,0.5779453090969457,0.4826165604884578,0.2812667331957246,-0.8111491316790362,-0.29708041775600513,-0.15629849773987514,